124 768
</s> 0.0527576 0.0421986 -0.048608 -0.0381047 0.0204614 0.034775 0.0142429 0.018668 -0.0523344 0.0321987 -0.0503738 0.037795 0.00684435 -0.0137239 -0.0646131 -0.020621 0.0161683 0.0158293 -0.020204 0.00951129 0.0122293 -0.0257861 -0.0382866 0.0607529 0.0258809 0.0249677 -0.0230085 0.0595494 0.00592663 0.00968792 0.00514457 -0.0435413 -0.00289758 0.00434936 -0.0541864 0.118873 -0.0199954 0.0165296 0.0259023 0.00932715 -0.0535719 -0.0630886 0.0891436 0.0118327 -0.0427207 -0.0545518 -0.0367052 0.0577198 -0.0264283 0.0459691 -0.0302835 -0.0439573 0.00362112 0.0255419 0.041039 -0.0287988 0.0376718 0.0113845 0.0289383 0.0191589 0.0352116 -0.0195354 -0.0261312 0.0139036 0.00551856 0.0258713 0.00206871 -0.0332833 -0.0224485 0.0466569 0.0328219 -0.00884486 -0.0402216 -0.0386728 -0.0117058 0.0251892 -0.0839156 0.0471381 0.0404631 0.0118968 -0.0311859 -0.00657448 0.0288814 0.0733027 -0.0316156 0.0689317 0.0519766 0.0292965 0.0129227 -0.0209455 -0.0176016 -0.026923 -0.0258118 -0.042156 0.000765657 0.00368584 -0.0344961 0.029688 0.0191728 -0.0225386 -0.00800825 -0.0784752 0.010011 0.0104279 -0.0541024 -0.0225912 -0.0370267 -0.0140485 -0.0546345 -0.0544874 0.0507927 0.00388737 -0.0148769 0.0485689 -0.042594 0.0452521 -0.00235587 -0.0472504 0.0360219 -0.0119635 -0.053398 0.0113007 0.0191893 0.0152826 -0.00373953 -0.00767909 -0.0146075 0.016987 -0.0587998 -0.0244485 0.0134076 -0.03306 -0.0227969 -0.0570493 -0.0231333 0.0270682 0.0112643 -0.0388447 -0.0364961 -0.0536576 -0.0790247 -0.0240301 0.0101623 0.0185446 -0.0436482 0.0597267 -0.00264805 -0.0307003 -0.0226683 0.0734811 -0.0478432 0.0402298 0.00376422 0.0232749 0.00670487 0.0543743 -0.0277063 0.051772 -0.0418399 -0.0402002 -0.0359731 -0.0392992 0.0248526 -0.0104781 -0.00414859 0.0172908 0.0172115 0.0433438 0.0597567 0.0220666 -0.0218043 -0.0406436 -0.0568852 -0.00449788 0.0503831 -0.0515696 -0.0200669 -0.0493068 0.0173597 -0.050596 0.0110944 0.0234671 -0.0636242 -0.0548511 0.0252254 0.0251119 0.0274227 0.0336017 0.0362788 -0.00864065 -0.0267657 0.0410937 -0.0115815 0.0227285 0.00581193 0.0185387 -0.0220407 0.00264824 -0.0112896 0.0404206 -0.0456132 -0.0439793 0.0550914 0.0464464 -0.0339753 -0.0116586 0.0373684 -0.0674417 -0.0375091 0.0586486 0.0265845 -0.0388239 0.0119768 -0.0241353 -0.0127993 0.0214011 0.0213455 -0.0114355 0.0470133 0.0323675 0.00528808 -0.0827297 0.0275983 0.0583997 -0.0336376 0.0171296 0.0414069 -0.0112595 -0.0631936 0.0248748 0.0142335 -0.0232682 0.0115809 0.0144708 -0.0232457 -0.00171983 -0.0191424 -0.0898602 -0.0419872 -0.00349857 -0.0151936 0.0407889 0.0304267 -0.0297313 0.0125102 0.0184761 0.0142422 0.0526167 -0.00420169 -0.0212171 0.0248237 -0.0371911 -0.016699 0.00924131 0.0964075 -0.0248761 0.0111438 -0.0617092 0.0388406 -0.0246832 0.0420134 -0.0172422 -0.00311846 0.0251579 0.0745972 -0.00166262 0.0581257 0.000920407 0.0253497 -0.0338821 -0.0578133 0.0348644 0.0102789 -0.0245575 -0.0184949 -0.0395355 -0.0562301 0.0289038 -0.0537993 -0.0502112 0.0338273 0.0382748 0.0119318 0.0634022 0.0503841 -0.0633603 0.00362697 -0.0392104 0.0489663 -0.0899766 -0.00462574 -0.0226132 0.00866066 0.00154747 0.00985037 -0.0623031 0.0280149 -0.0149589 -0.0293875 0.0370879 -0.0518492 0.0387195 -0.014122 0.0490254 0.0275502 -0.00855301 0.033372 -0.0463733 0.00320583 0.0482988 -0.000745408 0.0455481 -0.00440207 -0.0300976 -0.00803135 0.0345058 0.0378433 -0.00850714 0.0856467 -0.029931 -0.0641347 0.0369472 -0.00996139 -0.0332076 -0.0259261 -0.0484921 0.023759 -0.0123415 0.0677432 -0.0552109 -0.0381601 -0.00784366 0.0138662 0.0506143 0.0347261 0.0321006 -0.0428809 0.00614573 0.0300823 -0.0283614 0.0455504 -0.00483391 -0.0313929 0.0393626 0.0150272 -0.0233901 0.00302915 -0.0288431 0.0130435 0.0347811 0.0466586 -0.0362641 -0.0244446 -0.0082685 -0.0420469 -0.000919284 0.0279099 0.0286053 -0.0042111 -0.0621037 -0.00950198 0.0169132 0.0312735 0.0111683 0.0568934 0.0392487 -0.0108806 -0.0143514 -0.0314165 0.0142065 0.015058 0.0594902 -0.0407054 -0.0430535 -0.00310281 -0.030539 0.0239527 -0.0315727 -0.00567463 -0.067342 0.00464927 0.00807214 -0.0272987 -0.0260367 0.0183945 0.0205457 -0.0189896 -0.00551028 -0.0200815 -0.0245639 -0.0122396 0.0284975 -0.0466714 0.0644044 0.0437228 0.0601631 0.016535 -0.00681763 0.00317957 -0.027696 -0.0367786 -0.0160016 -0.00228479 0.0575039 0.0459415 0.0108737 -0.0629693 0.0320832 -0.000137102 0.0398956 0.0452005 0.0675373 0.0125888 0.011147 -0.03807 0.0568718 -0.032359 0.0335359 0.0540132 0.126269 0.0243396 0.0116759 0.00489247 -0.0191558 0.0396162 -0.0624608 -0.0105293 0.00402258 0.0527739 -0.0424962 -0.00722951 0.00237425 -0.026322 0.0568384 -0.0436901 -0.0438797 0.00863925 0.0512533 0.0439861 0.0557246 -0.0575744 -0.022643 0.0220596 -0.0381204 0.0428438 -0.0556039 0.0342221 -0.0318692 0.0133218 0.0291356 -0.0193798 0.0191313 0.00740108 0.0538074 -0.0296727 0.0248837 0.0286491 0.0602857 0.0367916 0.00810372 0.0190345 -0.0176398 0.0125553 0.0316381 -0.0297539 -0.0050918 0.0301311 0.00221936 0.0490833 0.0752276 -0.0233557 -0.0544403 0.0247787 0.00372329 -0.0545412 0.0633853 -0.0455094 0.055971 0.064508 0.0570183 0.00207988 0.033651 -0.0502534 0.00748804 -0.0070937 0.0290644 0.00730933 0.0465456 0.00774881 0.013742 -0.0105185 0.0116322 -0.0412022 0.0310748 -0.00784396 -0.0170214 0.000944743 -0.00176887 -0.0336017 -0.0179521 0.0233196 0.0454271 -0.0551961 0.0235811 0.0342418 0.0230701 -0.068626 0.0404503 -0.0190166 -0.0219383 -0.0181128 0.0173646 -0.0525124 -0.0242233 -0.00717747 0.0313257 0.0282754 0.0520062 -0.00747553 0.0322554 -0.00743453 -0.0407476 0.0614495 -0.0185303 0.00453761 0.00388436 -0.0597092 0.0171865 -0.0213102 -0.0169769 -0.0192482 0.00143855 -0.00876072 -0.000657854 -0.0287546 5.96029e-05 0.0417191 0.0417403 0.0433522 -0.0385414 -0.00584851 0.0484133 0.0753636 0.0551646 0.0362566 0.0261585 0.00518862 -0.00903411 0.0383045 0.0038634 -0.0338309 -0.0286166 -0.0103197 0.0215649 -0.0128668 -0.0406987 0.051464 0.00704953 -0.046701 0.0447849 -0.0197421 -0.00821332 -0.0308591 0.0477085 -0.00296379 -0.0609325 0.0290794 0.0199443 0.0349912 0.0147744 0.0171143 0.0156778 0.0392409 0.00815947 -0.0105413 -0.021516 0.00298702 0.044727 -0.0338211 -0.00769788 0.0268379 0.0559823 0.0200426 -0.00268655 0.00324493 0.0643525 -0.055712 -0.0178563 0.0289716 0.05153 0.00867446 0.019991 -0.0391784 -0.0352927 0.0352979 0.0441606 -0.0285176 -0.0380595 -0.0444059 -0.0395864 0.0184992 -0.02415 0.00550368 -0.00652479 -0.0311253 0.039171 -0.037138 -0.0320648 -0.00760021 0.0237733 -0.00405345 0.0162513 -0.0609485 0.0294729 0.0226201 -0.0290522 0.0568871 0.0433446 -0.02942 0.0359906 0.0124544 0.00719729 0.0549551 -0.0298611 0.0682281 -0.00645488 -0.0443103 0.0413867 -0.0400611 0.0134599 0.0411461 0.0573299 -0.0525512 0.0131284 0.00861254 0.0128554 0.00374803 0.0296601 0.0864602 -0.0171712 -0.020089 0.0321465 -0.0323979 0.0241844 0.0107026 0.0574044 -0.0313271 0.0284908 0.0601608 -8.5211e-05 0.0326521 0.0385234 0.0408546 0.00740483 -0.00530844 0.0369789 0.0440595 0.0113762 -0.00444402 -0.0364538 -0.0255763 -0.0350499 -0.0241495 -0.0719326 -0.0277917 0.0375571 0.0401027 -0.0387999 -0.0326596 -0.0607216 0.00648683 0.0550816 -0.0232313 0.0205106 0.00435158 -0.023454 -0.027214 0.0205686 0.00569873 0.043687 -0.0666971 -0.0227644 0.0732281 0.0259824 0.0404666 0.0321441 0.0584553 -0.0157656 0.0424876 0.0457399 0.0146676 0.0596044 -0.0380821 -0.0560357 -0.0634693 -0.00405072 0.0278708 0.0525594 -0.0317679 0.0443691 0.037636 0.0171288 -0.0171433 -0.00965561 0.00754912 0.0406977 -0.0444491 -0.041865 0.0473368 -0.0176084 0.0455529 0.0320097 0.0108379 0.0315417 0.0156931 -0.0159283 0.0264108 -0.0408604 0.00918391 0.00929969 0.0683448 0.018201 0.0351929 0.0673159 -0.0113187 0.00826677 0.0380884 -0.0492851 0.0220251 0.000849049 -0.0533794 0.0542958 -0.0128697 0.00363812 -0.0391137 0.0275148 -0.0100985 -0.0245879 -0.00305077 -0.0203686 0.0277766 0.00991822 0.00211905 -0.0300164 0.0364372 0.0450786 0.0735068 0.0318517 -0.0512211 -0.0556381 -0.0503571 -0.0177762 -0.0057592 -0.00803097 0.0287196 -0.0156095 0.0225711 -0.0496008 0.040302 -0.0298556 0.00570693 -0.0287891 0.0182481 -0.0438772 -0.00649147 -0.0091638 -0.0251024 -0.0333093
the -0.0179233 0.00542264 -0.0793344 -0.0349847 0.0812614 0.0395707 0.0453961 0.0757109 -0.0364319 0.0200897 -0.0384051 0.0370742 -0.100762 0.0279802 -0.0633672 -0.0490037 -0.02083 0.031832 -0.000932961 0.0404433 -0.00501303 0.0246221 -0.00571625 0.0619204 -0.00866394 -0.0581562 0.0733004 -0.0326036 0.0272467 0.0230426 0.00393372 -0.0296845 0.0682678 -0.0336113 -0.0122314 2.06805e-05 0.0201515 0.0535227 0.0189941 -0.0647159 -0.047561 -0.0462067 0.0404835 -0.00819684 -0.0127972 0.0626646 -0.00521522 0.0253207 -0.0979764 0.00586493 0.0291006 -0.000175261 -0.00908055 0.045931 0.0299413 0.00388097 -0.00510976 0.0258108 -0.0198386 0.0338339 -0.0283614 -0.0402055 0.0045888 -0.0429784 -0.0191025 0.0409304 0.0148565 0.0192455 0.0424398 0.000972818 0.0220652 -0.058599 -0.0272964 -0.0468137 0.00554372 -0.048405 -0.0803028 0.0242591 0.044708 0.0635991 -0.0184815 0.0104957 0.0262952 -0.0119696 -0.0583006 -0.00591427 0.00187073 0.00623567 0.00541436 0.0356499 -0.000882643 0.040454 -0.0107597 -0.0357847 -0.0037101 -0.0250921 -0.0579923 0.0191872 -0.00186134 0.058367 0.0362103 0.0982186 -0.0576322 -0.0141786 -0.0179288 -0.00813257 -0.0339509 0.00429585 0.0704414 0.0694788 -0.0551968 0.0187116 0.0404435 -0.0391505 -0.0108191 -0.0577871 0.0127894 0.0297986 0.00569358 0.0300168 -0.0448468 -0.0114586 -0.0186914 0.00392303 -0.051312 0.0161868 -0.00422087 -0.0179582 -0.0278968 0.0108169 0.0910493 0.00979484 -0.0271545 0.0373137 -0.0109021 -0.0199059 -0.0260573 -0.0349013 0.0235923 -0.0232535 -0.00884569 0.0558098 0.0237645 0.0412213 -0.0378559 0.0609468 -0.0836643 -0.001688 -0.0201309 0.0471299 -0.00612894 -0.0140876 -0.00402676 -0.010754 -0.0498378 -0.00314529 -0.0323941 0.0914401 -0.0100148 0.0273993 -0.0213619 -0.046821 0.0319343 -0.0193506 0.00498823 -0.0333278 0.0181649 0.0149444 0.0667374 0.0276037 -0.00522606 0.0326642 0.0510745 0.0322091 -0.0105851 -0.0305391 0.0327476 0.0203164 0.00675519 -0.0146251 0.00016574 -0.0448951 -0.0148929 -0.00950202 -0.0420527 -0.0660451 -0.0463933 0.0327077 0.0132627 -0.0053912 0.0155327 0.0260568 0.0452797 0.0295317 0.0436368 -0.0330836 -0.0184509 0.00865197 -0.0230372 0.049096 0.0158956 -0.0263462 -0.0243001 0.0967816 0.0138053 -0.0292879 0.0136112 -0.0635604 0.0271057 -0.0413611 0.0867142 0.0229808 -0.0109663 -0.0194148 0.0136569 0.00839517 -0.0190003 -0.030959 0.0128223 -0.0199618 -0.014582 -0.0881473 0.00646542 -0.0240382 -0.0211951 -0.00246762 0.0582833 -0.0031105 -0.0401204 -0.0151041 0.0225393 -0.0144004 0.0361201 0.00999979 -0.0232837 -0.0389645 -0.0765025 -0.103787 0.00101475 -0.000824671 -0.0129936 -0.070526 0.00775514 -0.0264974 -0.0396598 -0.0190569 -0.0157185 0.0349479 0.0293452 0.0279283 0.0545341 -0.021675 0.0262578 -0.00310462 -0.0131079 0.0250021 -0.00221423 0.0457676 -0.0691295 -0.0220197 0.00396225 -0.058358 -0.0507895 -0.0226794 0.0106597 0.031411 0.0298478 0.0211034 0.0143688 -0.0459746 -0.0504886 -0.00915593 0.00857494 0.0276768 -0.00585789 -0.00750705 -0.00935602 -0.00315942 -0.0172603 -0.0509146 0.0121294 0.000344594 -0.0153935 -0.00876364 -0.0100367 -0.0366317 0.00183942 -0.0481462 0.0895308 0.0130243 -0.0212185 -0.095401 -0.000673574 0.0076888 -0.0325088 -0.0234417 0.00920845 -0.00932315 -0.0557844 -0.0333508 0.0175273 -0.0194388 -0.0570313 -0.00777657 -0.00156614 -0.0440454 0.0246555 0.00836212 -0.0602198 0.0137514 -0.00520896 0.0111483 0.0543341 0.0205517 0.0128628 -0.0363257 0.0261426 0.0304143 0.00602695 -0.00787916 -0.120899 -0.0254886 0.0731421 -0.00720061 -0.03528 -0.0380545 0.0142569 0.0801804 -0.00489289 -0.0248282 -0.0411191 0.0226568 0.0246598 0.00565089 -0.0387858 -0.0178328 -0.0113372 -0.0174418 0.0149994 0.00814711 -0.0390285 0.0274457 -0.0593082 0.00164138 -0.0183274 -0.0300911 -0.0151619 -0.0266372 -0.0354225 0.0673098 0.0319661 -0.0378509 -0.00572104 -0.00925309 0.000133083 -0.0589984 0.0160212 -0.0574439 -0.0619998 0.016037 0.0216175 -0.00106446 -0.00505696 -0.0423002 0.048531 -0.0446605 0.00610902 -0.00674136 0.042054 -0.0297723 -0.0469914 -0.00353098 0.00217909 -0.0636456 -0.00570215 0.0664754 0.00427347 0.0159798 0.0601908 -0.0419517 -0.0503363 0.00131339 -0.00725765 0.0439326 -0.000284996 -0.00980838 -0.0146808 0.0215923 0.0358288 0.0277826 -0.0319843 -0.013526 0.0216535 -0.00221535 -0.0265768 0.0207412 -0.0592772 0.0106477 0.0188233 0.014182 -0.0449172 -0.0416055 -0.0189502 -0.0206105 -0.0144883 0.00563113 -0.0235111 -0.0257601 0.024648 -0.0273841 0.0629836 0.0105938 0.00592639 0.00359511 -0.0596407 0.0430205 -0.0354451 -0.0213332 0.00841163 0.0278263 0.052045 0.0290222 -0.119555 0.00704833 0.0181277 0.0132668 0.017241 -0.015354 0.0584477 -0.00829595 0.0140172 0.0782762 -0.116799 -0.0523354 -0.0267805 -0.0230087 0.00208965 0.0690549 0.0207477 -0.0503537 0.00366795 -0.0495951 0.0162347 -0.024994 0.0268196 0.0112128 -0.00638765 -0.037646 -0.0959654 -0.0556338 -0.0670117 -0.036695 0.0368824 0.056556 0.00740306 0.0592406 0.0374287 0.0234616 0.00487594 0.0670914 0.00975973 -0.0613393 -0.015066 0.00320146 0.0164756 -0.0114893 0.0234015 0.054807 -0.0341664 -0.0488968 -0.0107115 -0.00301241 -0.0188745 0.0407541 -0.0549482 0.00336686 -0.0158021 0.0731314 0.0116762 -0.0400304 0.0236448 0.0439344 -0.0492578 0.026469 -0.0175479 -0.0143227 -0.0660682 -0.00595482 -0.0356047 -0.00952859 0.00737355 0.0597781 -0.0417609 0.0448732 0.033096 -0.03613 -0.0789397 -0.053501 0.0646092 -0.0483516 0.0143901 0.0274898 -0.0744461 -0.00668222 -0.0452102 -0.0152519 2.14103e-05 0.0115461 -0.0240942 -0.00212291 -0.0206385 -0.0209051 -0.0595954 -0.0039151 -0.0349409 -0.0249044 -0.00312302 0.0263148 -0.00632807 -0.0160296 0.0180309 -0.0343009 0.00515771 0.00890464 -0.0124725 -0.0429957 -0.064114 0.00335817 0.0244245 -0.0609165 -0.0490551 0.035186 0.0371959 0.0333008 0.030731 -0.0292143 0.0467802 0.00676016 0.0476907 -0.0218798 0.0245003 0.0199975 0.0511712 -0.00156262 -0.00597659 -0.00886929 0.00119471 0.0382747 -0.021177 0.0227495 0.0324646 -0.0256879 0.00196521 -0.0406895 -0.0123489 0.0406552 0.0486557 -0.00434516 -0.0384054 -0.0242447 0.0137212 0.0234424 0.093816 -0.016189 0.0173701 0.00512278 0.036974 -0.0614643 -0.0240506 -0.0440427 -0.0310603 0.0222208 0.0462688 -0.0137242 -0.0173003 -0.0484322 -0.0241191 -0.00975521 -0.0521136 0.0330145 -0.0083554 -0.0254772 -0.0469522 -0.0819463 -0.00139761 0.0334065 0.0253018 0.00170459 0.0105614 0.0116313 -0.00980638 0.00681811 -0.0159648 0.0241087 0.0175456 0.0666463 0.00474359 -0.0839803 -0.0305931 0.0185192 -0.0297749 -0.0550788 0.0274087 0.00139103 -0.00683692 0.0192452 0.0227615 0.0031712 0.0237681 0.00332874 -0.015864 0.00527592 0.00607844 -0.0267674 -0.0278753 -0.033855 0.0443619 0.016331 -0.0520181 0.00523998 0.0121058 0.0302691 0.054112 0.0607509 -0.00439821 -0.0396389 -0.0383711 -0.0208331 0.0349947 -0.0124149 -0.0267474 0.0178978 0.00446308 0.0133863 -0.0764848 -0.012744 -0.0386381 0.0339761 0.0108576 -0.0127122 -0.0419543 -0.0121851 0.0287225 0.00803872 -0.0313179 0.00420544 0.0543687 0.012014 -0.0206446 0.0134965 0.002853 0.00585991 0.03267 0.0486795 -0.0018269 -0.00232327 0.00637461 0.018103 -0.0683568 -0.00589393 0.013694 -0.0338797 -0.00761555 0.000354706 0.0645851 -0.0295998 0.0351915 -0.0149114 0.00772611 -0.0772756 -0.0143744 -0.0245612 -0.000120792 -0.0139792 -0.0355591 -0.113012 0.0300696 0.0191187 0.0226706 0.011743 -0.0286883 -0.00518024 0.0570049 -0.0293077 0.00253968 -0.00178558 0.00968879 0.0131142 0.0110049 -0.0466887 -0.0334737 0.0324693 -0.0257508 0.016898 -0.00485425 0.00493711 -0.00836408 0.010248 0.0115502 0.016319 0.000273351 0.00516451 -0.0033201 0.00328474 0.0212005 0.0121578 0.0269045 0.0358078 0.0646592 -0.0371186 0.0345185 0.0260621 -0.00514267 0.0712509 -0.0135808 0.00567079 0.0535882 -0.0507372 -0.00120387 0.00901318 0.0386794 0.0209665 -0.00172358 -0.0958288 0.0387004 -0.0351837 0.0623535 0.00759113 -0.000346638 -0.0163129 0.00216674 0.0205696 -0.02324 0.0096033 -0.0102877 -0.0356816 -0.00191695 -0.00320756 0.00406922 -0.0555079 0.0251882 0.00673807 -0.0228001 -0.0159139 0.030984 0.0197659 0.0121305 0.0110444 0.0242655 0.0163809 -0.0159929 0.0517821 -0.0323216 0.0444889 0.0456218 0.0215173 -0.022531 0.00648898 0.0255915 0.0335824 0.0796576 0.107378 0.0214922 0.023536 0.00713525 -0.0220059 0.00830751 0.0168845
, -0.00525018 0.0210519 -0.0819506 -0.0269821 0.0493729 -0.00387808 0.015217 0.00506794 -0.0619893 0.0280427 -0.0248492 0.00134709 -0.0855588 0.0857324 -0.0536379 -0.0580121 -0.0601678 0.0418187 0.0462935 0.0258204 -0.00954261 -0.00990063 0.0160866 0.0370008 -0.0283722 -0.0633037 0.0372832 -0.0307312 0.0125662 -0.0153035 -0.00150604 -0.0550485 0.0450009 -0.0322494 -0.00813277 -0.0267979 0.0104915 0.041711 0.0152898 -0.0350255 -0.0289166 -0.0434214 0.0663528 -0.0130091 -0.0144951 0.0637937 -0.0394311 -0.00258251 -0.0636244 -0.00274763 -0.00356415 0.0218015 -0.0161001 0.024851 0.0505683 0.0368558 -0.00642371 0.0135637 0.00295382 -0.0129161 -0.0351235 -0.03331 0.000284856 -0.0204944 -0.0327529 0.00290961 -0.010985 0.0125027 -0.0140278 -0.0141995 0.0296773 -0.0802764 -0.0114307 -0.0996426 0.0169592 -0.0476389 -0.0774724 0.0180803 0.0113747 0.0239664 -0.0217707 0.0821499 -0.0126956 0.00425237 -0.0824048 0.0245347 -0.0018935 0.0599883 0.00588051 0.06065 -0.012249 -0.0130971 0.00632254 -0.0508863 -0.0326392 -0.0156343 -0.0582382 0.0137259 -0.00759194 0.0296207 0.0490623 0.0657491 -0.0380198 0.00913763 -0.0254477 0.00820175 -0.0255762 0.004533 0.0120589 0.0232774 -0.0465831 -0.0148866 0.0192273 -0.0317927 -0.0194418 -0.0475964 0.0465719 0.0278755 0.00222036 0.0243187 -0.0521881 -0.0172235 -0.0186378 0.0262089 -0.0302045 0.00181179 -0.0101357 -0.00720588 -0.0336867 -0.00446365 0.11003 0.0237814 -0.032817 0.0073355 -0.0190355 -0.0224362 -0.0284555 -0.0256818 0.000383464 -0.0037505 -0.0585366 0.0353837 -0.00087656 -0.00466285 -0.0367535 0.0722094 -0.0653279 -0.0159385 -0.0247196 0.0358038 0.0310821 0.0211405 0.0282221 -0.037763 -0.0464331 -0.0272465 0.00519094 0.08192 -0.0220779 0.0257078 -0.0217061 -0.0521111 0.0194521 -0.0422177 -0.0188408 -0.0215922 -0.0312091 -0.0217416 0.0587762 0.0252533 0.0484201 0.0380724 0.0329441 0.0131013 -0.0122206 -0.0274355 0.0317876 0.0229689 0.0345253 -0.0231445 0.0404893 -0.036266 -0.0102731 -0.00169969 -0.00186811 -0.048602 -0.078813 0.0291365 0.0123389 -0.00299612 0.0047286 -0.00281229 0.0552769 -0.0131601 0.0270241 -0.0257991 -0.031331 0.04555 -0.00208307 0.0745045 0.0247938 -0.00131023 -0.0328696 0.0521622 0.0149902 -0.000673852 0.00418824 -0.107037 0.0476589 -0.0190302 0.0391382 0.0442296 -0.00568922 -0.00290378 -0.00241425 0.039063 0.00301642 -0.0457588 -0.00581316 0.0251165 0.0182724 -0.0786719 -0.0104442 0.00142465 -0.00772885 0.0236803 0.0480394 -0.00924322 -0.0145091 -0.0318002 0.0180315 -0.0148008 0.0235539 0.00315903 0.00443315 -0.0202499 -0.0521616 -0.0583923 -0.0377379 0.000663383 -0.0290282 -0.082568 0.00560958 -0.0165618 -0.0498112 -0.0680021 -0.0427976 0.00959616 0.023116 0.000391192 0.0196533 0.012639 0.0042981 0.0253881 0.0336226 0.0200714 0.00378841 0.0814065 -0.0510801 -0.0290018 0.0339098 -0.021214 -0.0505872 -0.0433873 -0.0422888 0.0342881 0.00152338 0.00905976 0.050425 -0.0586064 -0.00914201 0.00642692 -0.0169739 0.0333813 -0.0867614 0.000572931 -0.0128905 -0.00303442 -0.0118668 -0.0158876 -0.0203132 -0.021584 -0.00856307 0.0258882 0.00115347 -0.0435191 -0.0365292 -0.0312307 0.0783592 0.0328507 0.00741194 -0.119119 0.0313411 0.0163146 -0.0757414 -0.0556606 -0.000368604 -0.00373292 -0.083858 -0.0127606 -0.0161911 -0.0208143 -0.0681388 0.0381974 -0.0145663 -0.053055 0.0324752 0.0330463 -0.0617238 0.0162644 0.00964712 0.00154163 0.0412805 0.0481306 0.00665973 -0.0128206 0.0165373 0.00691592 0.00508502 0.0133844 -0.121539 -0.0596977 0.101191 -0.0157487 -0.0680836 -0.0339688 0.0318908 0.00438324 -0.0170456 -0.0303308 -0.0503824 -0.000931784 0.0649508 -0.0175699 -0.050483 -0.0081826 0.0200367 -0.0293365 -0.0147149 -0.0238558 -0.0271811 0.00148896 -0.0211442 -0.0126991 -0.036213 -0.0318834 -0.0175071 -0.0320111 -0.0624547 0.0699998 0.0485921 -0.0375609 -0.00694308 -0.0181204 0.00143531 -0.0236925 0.0553804 -0.0658974 -0.021641 0.00870971 0.0247779 0.0114507 -0.00367745 -0.0247878 0.0598815 -0.0468554 0.00732996 -0.0486239 0.0424529 -0.063621 0.00254943 -0.00441619 -0.0209008 -0.00651712 0.00376995 0.0624817 0.0168372 0.026554 0.0450813 -0.0355657 -0.0720785 -0.0223256 -0.010885 0.0565451 -0.0243893 -0.0187298 0.0295319 0.025614 -0.0149465 0.0550906 -0.0143756 -0.0160133 0.0194216 0.032735 -0.0380206 -0.00848773 -0.0430962 -0.0102295 0.0141138 0.0562657 0.000330927 -0.0469173 0.0322774 -0.0175937 -0.00644139 0.0519489 -0.0321781 -0.0567287 0.016871 -0.0316743 0.0658405 0.0251605 -0.0201493 -0.0212324 -0.0514499 0.0427626 -0.0387038 0.0260254 0.0202914 0.00977125 0.0659752 0.0112239 -0.108642 0.00243623 0.00935925 -0.0197608 0.00384671 -0.0202334 0.0345345 0.00251907 0.000109807 0.0646908 -0.103693 -0.0602596 -0.024716 0.00105844 0.0473538 0.0697965 0.0561925 -0.0152666 0.0178149 -0.0780721 0.0207197 -0.0215823 0.0236922 0.00870045 -0.00282683 -0.0688619 -0.0730976 -0.0228341 -0.032167 -0.0412429 0.0444003 -0.0103705 0.000781533 -0.0112883 -0.00885893 0.0378947 0.0166575 0.0522804 0.0274715 -0.0206832 -0.0174491 -0.0391877 0.046306 -0.0160106 -0.035688 0.0439226 -0.022463 -0.0128198 -0.068182 -0.0298748 -0.00941137 -0.0149542 -0.065544 0.00168581 0.0023036 0.0671158 -0.0094441 -0.0586005 2.8091e-05 0.0274024 -0.0481388 -0.0300731 -0.0304799 0.0311978 -0.0655213 0.0302709 -0.0493855 -0.00833531 0.00573801 0.0393872 -0.0266204 0.0406688 0.0177763 -0.0649761 -0.0623524 -0.051814 0.0317064 -0.0260586 -0.000936135 0.0346017 -0.0653608 -0.0358335 -0.00515546 -0.0123389 -0.0257675 0.0238137 -0.011059 -0.0121012 -0.0273078 -0.0265165 -0.0451953 0.0358395 -0.0269361 -0.0082379 -0.0142415 0.0263762 -0.000600495 -0.0178111 0.00916672 -0.00562535 -0.0351726 0.0204894 -0.0596496 -0.0276394 -0.0284462 -0.00875767 0.0162657 -0.0589948 -0.0395307 0.025968 0.0603664 -0.0328034 0.02412 -0.0294865 -0.0360228 -0.0234368 0.0575419 -0.0354016 0.0290696 -0.0301427 0.0313153 -0.0161712 0.0479321 -0.0448678 0.0184065 0.0331059 0.0128959 0.0309457 0.0308053 -0.0140771 0.0303302 -0.0568037 -0.00883782 0.0949161 0.0777915 0.00649695 -0.0159796 0.00911967 0.0019834 0.0329546 0.0507135 -0.0145867 0.0133146 -0.0434646 0.0656301 -0.0298464 -0.0396229 -0.0405038 -0.0198937 -0.0149061 0.0098151 0.0212451 0.00442006 -0.0353578 -0.0109845 0.00699548 0.00275446 0.0147003 -0.00121823 0.014946 -0.0416197 -0.0969158 -0.00231798 0.018877 0.0162977 0.0033161 0.029596 -0.0165715 -0.0346402 -0.00202923 0.0192087 0.0322403 0.0190429 0.056964 -0.0182788 -0.0669701 -0.0125876 0.0257519 -0.0143309 -0.0564607 0.00988579 0.0072046 0.00230192 0.0285373 0.0336352 0.0149804 0.00353883 -0.00968134 -0.00344674 -0.0118724 -0.00842445 -0.00294418 -0.0145201 -0.0472897 0.0352791 -0.0127386 -0.0580404 -0.0199201 -0.00926037 0.0502584 0.0545526 0.0292911 -0.0193674 -0.0334759 -0.0289314 -0.0318638 0.028208 0.0126132 -0.00859818 0.0149933 0.0187555 -0.017193 -0.0724993 -0.00335346 -0.0705613 0.0378809 0.00277098 0.0194108 -0.0462948 -0.0184451 -0.0295071 0.0166881 -0.0113597 -0.0371487 0.0796466 -0.00251219 -0.0100912 0.0129464 -0.00393804 -0.0225814 0.039581 0.0329168 0.00749532 0.00607702 -0.0396819 0.00947561 -0.0238819 -0.0025326 -0.0343502 0.00431818 -0.021222 -0.0325588 0.0493188 -0.031477 0.0598123 -0.0136014 0.0218572 -0.0704617 0.015811 -0.0332512 0.00329114 -0.0259857 -0.0462834 -0.0667219 0.0425653 0.0152688 0.0505711 -0.000455718 -0.00640579 0.00805445 0.0619492 -0.0251524 0.0238457 -0.0168982 0.0488976 -0.0140827 -0.00483167 -0.0439268 0.0290314 0.00868014 -0.00125723 0.0228411 -0.012304 -0.00874608 0.0320508 0.0220412 0.0284631 0.0137124 -0.0253972 0.0150639 0.0137154 0.00706557 0.0216886 0.00168735 0.0298179 0.0391322 0.059867 0.0181524 0.0206817 0.0101531 0.0142527 0.0614816 0.0186623 -0.00504356 0.0894594 -0.0293732 -0.0499003 0.00716392 0.0330363 0.00636675 -0.0289259 -0.0802884 0.0342518 -0.0095497 0.00324132 0.0245048 -0.0175071 -0.00296778 0.0348205 0.0199636 -0.0185255 -0.00427159 0.00697812 -0.0721481 -0.00643113 -0.0190904 -0.0255159 -0.00142156 0.042652 0.0124996 0.00371325 -0.0259499 0.0169381 0.0285219 0.0234941 0.0176251 -0.0197563 0.0230788 0.0124586 -0.00390211 -0.0240896 0.0270036 0.067123 -0.0149636 0.00269886 -0.00945543 0.0600539 0.0200962 0.042748 0.0665742 0.012321 0.034978 0.017502 -0.0341268 0.00631877 0.029904
. -0.0278804 0.0181518 -0.0596927 -0.0543485 0.0861345 0.0321657 0.0393315 0.0657544 -0.0640276 0.0231248 -0.0330115 0.0513233 -0.0694997 0.0931632 -0.0766188 -0.00435993 -0.0230148 0.00815555 0.00852786 0.0265094 -0.0396073 0.0113939 -0.0157356 0.0146334 -0.00607893 -0.067362 0.0326841 -0.0429579 -0.0138103 -0.0080379 -0.0410326 -0.00701301 0.048103 0.00296684 -0.0250272 -0.000448342 0.0101867 0.0484624 -0.0142316 -0.0366529 -0.00912705 -0.0379964 0.0214259 -0.0120347 0.000541315 0.0217488 -0.0105645 -0.000262337 -0.0460795 0.015784 0.0256784 -0.0153298 0.00642838 0.0363303 0.0179565 0.0331524 -0.00149033 0.00620589 0.00367547 0.0245832 -0.0048936 -0.0212993 -0.0182094 -0.0577698 -0.0592405 0.0741895 -0.0272606 -0.0215482 -0.00429097 0.00511606 -0.0129747 -0.0714703 -0.0337148 -0.0409367 0.0196567 -0.078899 -0.0928277 0.00465921 -0.0119512 0.0519817 0.0503769 0.0878397 0.0775417 -0.0143331 -0.0690251 -0.020602 -0.0110724 0.0168119 -0.00270212 0.0402265 0.00870174 0.0202878 -0.00909408 -0.0296961 0.000169291 -0.0126018 0.00377407 -0.013326 0.0160542 0.0459104 0.0957042 0.0200181 -0.0647651 0.0139041 -0.0347256 0.00872362 -0.0402989 -0.0107151 0.0206507 -0.0103453 -0.0042995 0.00817731 0.0258416 -0.0125775 0.0104465 -0.0723373 0.00855161 0.0308009 0.00836539 0.018993 -0.0418683 0.0179383 -0.0219121 -0.0073449 -0.0111358 0.00423072 -0.00746767 -0.0241547 -0.0473062 0.0332319 0.0820664 -0.00257466 -0.0393335 0.0085854 0.0229874 0.0141444 -0.019974 -0.031599 0.0279467 -0.0208574 -0.019457 0.0350015 0.0021569 -0.00646624 -0.023346 0.0390684 -0.0471092 -0.0412807 -0.00896994 0.00950761 -0.0280597 0.0361695 0.0189821 -0.0377838 -0.0570827 -0.0353139 -0.0353694 0.121381 -0.0133175 0.0116477 -0.0325765 -0.0195812 -0.0140413 -0.00416105 -0.0105347 -0.0352499 0.0124218 -0.0131521 0.0465892 0.01384 0.0322698 0.0323479 -0.00908404 0.0476124 0.0371958 0.00635597 0.000390915 -0.00711482 -0.00989916 9.569e-05 0.0160732 -0.0416655 0.0358972 0.00749574 0.00482693 -0.0240844 -0.0404007 0.0156693 -0.00935888 -0.00335497 0.0466637 -0.0148053 0.0594278 0.0582152 0.000859158 -0.0572622 0.00722585 0.0149649 -0.0337464 0.038468 -0.0187107 -0.0231047 -0.0584276 -0.0194089 0.0230457 0.00739485 -0.0404661 -0.0862717 0.0371102 -0.0557178 0.0615223 0.0144742 -0.0312061 0.0162193 -0.011442 0.0168239 -0.00219539 -0.0548814 0.0442236 -0.0173268 0.00462745 -0.081934 0.00565486 -0.00325345 0.00164697 0.0225115 0.0838906 0.00773248 -0.0318828 0.00950491 0.0252111 -0.0149853 0.0175131 0.015325 0.00623587 -0.0198134 -0.0195014 -0.0269807 0.0242456 -7.09762e-05 0.0160216 -0.0611622 -0.0213276 0.0334929 -0.0340237 -0.0059104 -0.0337377 0.0433212 0.0240947 -0.0109231 0.0270113 -0.0464751 0.0226227 0.0197852 0.0218493 0.00529205 -0.024718 0.0578218 -0.0422059 -0.0317136 0.00330769 -0.0540368 -0.00534398 -0.042548 -0.0331961 -0.0137114 0.00288244 0.0356931 0.00135763 -0.0117183 -0.0426309 0.00682741 -0.00841989 -0.0314192 -0.0312234 -0.0406777 0.000448087 -0.0595584 -0.0446007 -0.0654313 -0.0146343 -0.0582331 -0.031742 0.0165651 0.0159142 -0.0964312 0.0209886 0.041546 0.083775 0.0537278 -0.0145441 -0.0299021 0.0485829 -0.0044867 -0.0434953 0.00295278 0.0964805 0.0199273 -0.0717556 -0.0200216 -0.020081 -0.012416 -0.0509593 0.0323304 -0.00542101 -0.0499492 0.011831 0.000178359 -0.0198666 -0.00460206 0.00645009 0.0314851 0.0597421 0.0318591 -0.00678317 -0.0273042 0.00724745 -0.000853761 -0.00481012 -0.00211419 -0.139196 -0.00882261 0.0965391 -0.0241874 -0.0340832 -0.031896 0.0194281 -0.0406446 -0.0126943 -0.0462603 -0.0328165 -0.000119014 0.0309033 -0.0223153 -0.050227 0.0183849 0.0262784 0.00602035 0.0402402 0.0159378 -0.0568243 0.00576796 -0.0397179 -0.0171313 -0.030721 -0.0279178 -0.0606375 -0.0212963 0.00803651 0.0462078 0.0466643 -0.0472042 0.00442563 -0.00199919 0.00917919 -0.0668566 0.0727421 -0.0859339 -0.00575663 0.0132818 -0.0363995 0.00296181 0.0221008 -0.0412155 0.0917212 -0.0171251 0.0126217 -0.038959 0.0402075 -0.0394436 -0.0637223 -0.0205889 -0.00697598 -0.0907091 0.0104878 0.0573076 0.00465536 0.0211615 0.0307535 -0.0409714 -0.0479886 -0.0407296 -0.0120025 0.0281977 -0.0252535 -0.00286379 0.0169897 -0.0233422 0.0319907 0.0463593 -0.0196913 0.0130655 -0.0244458 0.0315282 -0.0150272 0.0258353 0.048736 -0.0202609 -0.00839168 -0.00460683 -0.0170914 0.00748804 0.0206675 -0.00332386 -0.0198214 0.0190779 -0.0556778 -0.0260373 -0.0050364 -0.0642658 0.0326076 -0.00511294 0.0367699 -0.0331855 -0.0492531 0.0347312 -0.0142472 0.0539615 0.0476572 0.0473991 0.0551681 -0.0371846 -0.13616 0.0141449 0.0331048 -0.00986366 0.0277256 -0.0266634 0.0431558 -0.0164601 -0.0339595 0.113505 -0.0917124 0.00807272 -0.024734 -0.00412107 0.00162607 0.05836 0.0471434 0.0255607 0.00150851 -0.0525677 0.0332885 -0.0233324 -0.0111413 -0.0269661 -0.0525172 -0.0131792 -0.0545012 -0.0328764 -0.0235941 0.0086848 0.0283629 0.0279378 -0.0180809 0.00469427 -0.0246508 0.0412692 0.00775456 0.0617792 -0.0139151 0.000916285 -0.0368777 0.00256282 0.0147086 0.0172582 0.0409391 0.0489992 0.00276038 0.00828085 -0.0149694 -0.0115564 0.0321357 0.00381344 0.00976437 0.00143917 -0.00196135 0.130123 -0.000809844 -0.0555969 0.0227794 0.0161412 -0.0457857 0.0637486 0.0460935 0.020031 -0.0141138 0.00127501 -0.0113456 -0.0213364 0.0313494 0.0120967 -0.015015 0.0276608 -0.00128387 -0.0592142 -0.0441568 -0.0310862 0.0569095 0.0117842 -0.0118741 0.0146725 -0.0767745 -0.0463093 0.0261202 0.0112042 0.00933805 0.00172117 0.00603202 0.018979 -0.0111575 -0.00620777 -0.056114 -0.0258861 -0.0647375 0.0078257 0.00927588 0.000397116 -0.0431034 0.0125307 0.0351997 -0.00887561 -0.0358396 0.0157486 -0.0428994 -0.00531723 0.0169885 -0.0044359 -0.0432863 -0.0613288 -0.0229756 0.0138132 0.0371762 0.00275735 0.0365072 -0.0425484 -0.0306762 -0.0673484 -0.00428916 -0.00725992 0.0103 0.00821835 0.0515276 -0.00297838 0.00734764 -0.00804289 -0.00630239 0.0533354 -0.0319173 0.0751667 0.0780649 -0.065953 -0.0100228 -0.0813568 -0.0268173 0.0399217 0.0448533 -0.0381183 -0.0263619 -0.02259 0.0238459 0.0736014 0.0510227 -0.0248021 0.0110904 0.0297915 0.0755799 -0.00319684 0.00464301 -0.0186934 -0.0276116 0.0444614 -0.0158675 -0.0106584 0.0219338 -0.0172026 -0.0346839 0.00743534 -0.010092 0.00531022 -0.00579455 0.0161315 -0.0105664 -0.0440433 0.0188179 -0.023021 -0.0172141 0.0431945 -0.0138597 -0.0431887 -0.0437976 0.00630227 -0.00728445 -0.0159863 0.0415421 0.0681596 -0.062281 -0.055197 -0.0343242 0.0327518 -0.0430851 -0.011912 -0.0138299 0.0391595 -0.000489167 0.0291083 0.00689385 0.000614484 0.00983602 0.0225122 -0.0251983 0.00626396 0.000422757 -0.013287 -0.00813699 -0.0194091 0.0131105 0.00134386 -0.0643855 0.0245581 -0.0327417 0.0394318 0.0411561 0.0107542 -0.045347 -0.0333408 0.0207275 -0.0258805 0.0253221 0.0470511 -0.00250848 0.00128805 0.0321167 0.022612 -0.0451835 0.00255227 -0.0329159 -0.0287033 0.0150816 0.0341684 -0.0352691 0.0187786 -0.0237014 0.0105891 0.00581504 -0.00863123 0.0726196 0.0455785 -0.0633477 0.00539952 -0.0250395 -0.00083654 -0.0203971 0.0544914 0.0214719 0.000804162 -0.0285528 0.0347577 -0.0535709 0.0114837 -0.0123847 0.0201797 -0.0135235 0.0207554 0.0368337 -0.0554431 0.0406761 0.042196 0.0214516 -0.138482 0.00520369 -0.0321567 0.020111 0.00376544 -0.00856703 -0.0894702 -0.0393529 0.0136878 0.0415551 0.0122309 -0.0666588 0.0289606 0.0516907 -0.0302396 0.0357303 0.00455735 0.0424723 -0.0504514 -0.0155101 -0.0352825 -0.0796474 0.0217192 -0.0414683 -0.0188339 0.011272 -0.0135307 -0.0101681 0.015334 0.026474 0.00976278 -0.0185296 -0.0193547 0.0119002 -0.0449615 0.00913573 -0.0118289 -0.00294215 -0.00175643 0.067504 -0.0134029 0.00325247 0.0350442 0.0122627 0.0516253 -0.0137835 0.0201707 0.025541 -0.0592701 -0.0280928 -0.0070398 0.0281404 0.0123913 0.0461288 -0.0406988 0.0386179 -0.0283069 0.036083 0.00908155 -0.00433048 -0.0286315 -0.0104043 -6.37887e-05 -0.00510023 -0.0428018 -0.0146382 -0.0422444 -0.000956979 -0.0247511 -0.0264782 -0.00347154 0.0469146 -0.0128186 -0.0146735 -0.0195409 0.0323558 0.0313034 0.0592949 0.0146179 -0.0247791 0.0460817 -0.0236552 0.0188393 -0.0296287 0.0243048 0.0428786 0.0248576 -0.0353251 0.00959566 -0.00315792 0.0189861 0.0196659 0.0692813 0.0179829 -0.0316685 0.0255207 0.0433294 0.0166855 -0.0098036
of 0.00123933 0.0203521 -0.0633745 -0.0540973 0.0614457 -6.35271e-06 0.0242771 0.0826546 -0.0523829 0.00908723 -0.0204556 0.0315138 -0.0416698 0.0649369 -0.0809357 -0.0458707 -0.0243187 0.0373872 0.0115664 0.00996449 0.00594405 0.0268669 0.0199021 0.0463307 -0.00566849 -0.0760748 0.0486526 -0.0327519 0.012878 -0.036723 0.0154044 -0.0358066 0.0622165 -0.0416068 -0.0147265 0.00702812 0.0251796 0.0698963 0.0130387 -0.0366398 -0.000499146 -0.0917181 0.0608735 0.0250594 -0.0193627 0.0277131 -0.00950351 0.0438111 -0.0735896 0.00229655 -0.0118079 0.00633782 -0.0285385 0.00114486 0.0167328 -0.04331 0.0172445 0.0184995 -0.0144639 0.046764 -0.00392782 -0.0345162 -0.0355107 -0.0763128 -0.03015 0.0164986 -0.0259081 0.00343661 0.00600095 0.0203951 0.0246547 -0.0731447 -0.0104954 -0.0629683 0.0263674 -0.100201 -0.104858 0.0599055 0.0354133 0.0860376 -0.0026135 0.0341506 0.0200005 -0.0290649 -0.0919619 -0.0408227 0.0214285 0.0236326 -0.0234358 0.0476647 0.0290766 0.0344607 -0.00649633 -0.0449957 -0.00769715 -0.0124247 -0.0447606 0.00383473 0.00501005 0.0606542 0.0542646 0.0807022 -0.0452367 0.0133941 -0.0300782 -0.00458293 -0.0411334 -0.0216043 0.029591 0.0442535 -0.0153134 0.0171639 0.0425332 -0.0141188 -0.00808663 -0.06481 0.00374587 0.0360952 0.0068757 0.00661501 -0.0659757 -0.0015882 -0.0577753 -0.0159684 -0.0566701 0.0147953 -0.00469088 -0.0316412 -0.0509512 -0.00129513 0.097403 -0.000468262 -0.0150484 0.0068148 -0.00294013 0.00308759 -0.0633709 -0.0607256 0.0563584 0.0254905 -0.0220633 0.0386916 0.0559336 0.0274338 -0.0158808 0.10307 -0.0612832 -0.0108653 -0.0301403 0.0520915 0.00203801 0.0417977 -0.00664278 -0.0371375 -0.0575285 -0.0036055 -0.0326154 0.0678077 0.00743627 -0.00590275 0.00764742 -0.0107161 0.0167382 -0.0161119 -0.0262756 -0.0519982 -0.0296518 0.0170518 0.0788445 0.0212612 -0.00832732 0.00582512 0.00983745 0.0018919 0.0118147 0.00103406 0.0210136 0.0327737 -0.00370782 -0.00394572 -0.0160578 -0.0616789 0.0037287 0.000674544 0.00248283 -0.058824 -0.0581425 0.0282287 -0.00790917 0.00417638 0.0399931 -0.00087197 0.0312387 0.036309 0.0095274 -0.0384589 -0.0320433 0.0536941 -0.0131484 0.087628 0.015016 -0.0367655 -0.0364809 0.0495398 0.0194542 -0.0153113 -0.000443223 -0.0617588 0.0701244 -0.0061049 0.0642791 0.0259233 0.00527801 -0.00439275 -0.0168165 0.0390111 -0.0137581 -0.0055824 0.00287871 0.0328261 0.0117588 -0.0827404 0.00453283 -0.0559611 -0.0082251 0.00089524 0.0788904 -0.00562804 -0.0408713 -0.0114813 0.0245045 0.00943497 0.0407429 0.0138867 0.000421386 -0.0381057 -0.0114348 -0.0533854 0.0225108 0.00765193 -0.0392261 -0.0507713 -0.00368133 0.010662 -0.0419337 -0.0474846 -0.0242104 -0.000549191 0.0212717 0.00906932 0.0348172 -0.0213541 -0.0125919 -0.015101 0.00452236 0.0427852 0.0171636 0.0646596 -0.0734086 -0.00280055 0.012544 -0.0388031 -0.0193361 -0.0259147 0.0178823 0.0298259 -0.00265853 0.0221538 0.00841186 -0.0398844 -0.0619327 0.0100675 -0.0112445 0.00288129 -0.0233907 -0.00886859 -0.0112879 -0.0124086 -0.0190891 -0.0608114 -0.0131141 -0.0281549 -0.0468341 -0.0238212 0.0320829 0.0175804 0.0108731 -0.0511617 0.0875553 0.0298456 -0.0441918 -0.0456289 0.0421649 0.012041 -0.05888 -0.0114443 0.0351702 0.00550785 -0.0683638 -0.0147293 -0.00265407 0.0175026 -0.0795724 0.00475952 -0.0380393 -0.0634578 0.00404629 0.0305514 -0.061429 0.000301925 -0.0250947 0.00726051 0.0293651 0.0610415 0.02555 -0.0181114 0.0121666 0.00877917 -0.00546656 -0.00229161 -0.160189 -0.00642853 0.0719411 -0.00490534 -0.0369253 -0.0555272 0.0270385 0.0179025 -0.00329946 -0.0450298 -0.0708166 0.0146651 0.0463985 0.0207816 -0.0396949 -0.0521676 0.00774349 -0.0264839 -0.000243943 -0.00600943 -0.0244979 0.0061993 -0.0306736 0.0125535 -0.0140805 -0.0271699 -0.0340913 -0.0255151 -0.0412204 0.140529 0.0111974 -0.0199228 -0.0105215 -0.011925 -0.00127118 -0.0812315 0.0165021 -0.0441364 -0.0174373 0.0215728 -0.0100722 0.0390655 0.00271724 -0.0396207 0.0161984 -0.0355622 -0.0059892 -0.0313764 0.039984 -0.0572421 -0.0466294 0.0237372 -0.0315333 -0.0651579 -0.00754401 0.02893 -0.00117091 0.0324826 0.0945982 -0.0272877 -0.0624999 -0.00523382 -0.0284399 0.0174609 -0.0157195 -0.0244639 0.0247178 0.0051269 0.0156738 0.101477 -0.0178913 0.0282213 0.0174326 0.0281571 -0.0338254 -0.0196536 -0.0135148 0.00480278 0.0329002 0.049478 -0.0545499 -0.0495589 0.00653775 -0.0214617 -0.0181741 0.0385901 -0.0120635 0.0108567 0.042479 -0.0424726 -0.00230224 0.008848 0.00751399 -0.0460455 -0.054281 0.0337858 -0.0307142 0.00911477 0.0103159 0.0363683 0.046149 -0.0135025 -0.118133 0.0320219 0.0133369 -0.0152367 -0.0151836 -0.0177615 0.0320058 0.0151859 0.0166715 0.0690182 -0.104499 0.00346877 -0.0308596 -0.0183182 -0.0137739 0.06218 0.0523889 0.00191135 -0.0112766 -0.0363685 -0.0203381 -0.0138812 0.0235641 0.00422298 -0.00337715 -0.00183089 -0.0510504 -0.0238732 -0.0363647 -0.0517395 -0.0148958 0.0113164 -0.0391932 0.0214617 0.0115038 0.0180734 0.0315322 0.0630557 0.00800141 -0.000986688 -0.00276205 -0.00631699 0.0176608 -0.0303627 -0.0196902 0.039088 -0.041434 -0.00340474 -0.0388808 0.0158861 -0.0356986 0.00649476 -0.019459 0.000750637 -0.0233033 0.00609652 -0.0132804 -0.0482712 0.0297835 0.0166745 -0.0623 0.0572235 0.0119623 -0.0261388 -0.0675815 -0.00259789 -0.0495764 0.00142359 -0.0244676 0.0473523 -0.014668 0.00926788 0.02465 -0.0547115 -0.00871109 -0.0530649 0.046806 -0.0192133 0.0284263 0.0340904 -0.0698047 -0.00437433 0.0061512 -0.0208901 -0.00554814 0.0108567 -0.0379593 0.0258729 -0.00307123 -0.0511103 -0.0982652 -0.000756667 -0.0235666 -0.00875631 0.015381 0.00764116 -0.0462032 -0.0383336 0.00546677 -0.0409772 -0.00509169 0.0577036 -0.0116594 -0.0093667 -0.0442779 -0.0284895 0.00511125 -0.114578 -0.0662246 -0.0166921 0.0397039 0.00457698 0.0197641 -0.0391527 0.00625588 -0.0256692 0.0131228 0.000315314 0.0187768 0.0277016 0.0469217 -0.0149005 -0.01813 -0.019806 0.0118474 0.0205082 -0.00950252 0.0338487 0.0784091 -0.0472917 -0.000868121 -0.0244528 -0.0186809 0.0478266 0.0519181 -0.00173283 -0.0222255 0.00493855 0.0120708 0.0253364 0.0570719 -0.0184173 0.0172882 0.0304819 0.0561041 -0.0223285 0.0110417 -0.0491543 -0.0377291 0.0470218 0.0344474 -0.00553248 0.0018164 -0.0215767 0.0184764 -0.0251679 -0.0249215 0.0302701 -0.0108699 -0.0213297 -0.0142531 -0.0823717 -0.00524009 0.00153735 0.0409545 0.0616339 0.0169543 -0.0201279 0.00632852 0.00533959 -0.0148339 0.0318696 0.020792 0.0455768 0.0126588 -0.0998721 -0.00648831 -0.0173753 -0.03008 -0.0153596 -0.0256059 -0.00660146 0.000589794 -0.00036777 0.0130321 -0.0241358 0.0624169 0.0162841 -0.0169441 0.0388212 0.0199729 -0.024822 -0.0184382 -0.0290563 0.041235 -0.0101682 -0.00472741 0.0214046 -0.0211031 0.039784 0.069836 0.0587426 0.0101627 -0.0556695 -0.0307374 -0.0155464 0.0254068 -0.017416 -0.0114357 -0.00788673 0.00556236 -0.00533438 -0.0251244 -0.00762997 -0.0568942 0.00636787 0.0101095 0.0352571 -0.0374395 0.0125141 0.000259305 0.00421285 -0.038414 0.0111862 0.0395524 -0.00588147 -0.0371957 0.0481839 0.0446166 -0.00999146 -0.0130033 0.0473183 0.0313889 0.0132119 -0.0541065 0.0149809 -0.027442 0.0185325 0.00854869 -0.0126072 -0.0183731 0.0352339 0.0642687 -0.0483972 0.0196098 0.0205505 0.00872373 -0.010503 0.00120355 -0.0040574 -0.0107634 -0.0219649 -0.0179699 -0.0812345 -0.0140746 0.0159199 0.0383328 -0.00447722 0.019517 -0.0187092 0.0597195 -0.0246774 -0.0045431 -0.0368537 0.000934206 -0.0186113 -0.00386357 -0.0259043 -0.0130196 0.0214487 -0.0385776 -0.0135371 -0.00572774 -0.0269384 0.0237546 0.047101 0.0431377 0.0125354 0.00122486 -0.0323922 -0.0193986 -0.0304746 0.0307812 0.0159717 0.00585824 -0.0124853 0.0439684 0.020523 0.016072 0.000935704 -0.0403873 0.0525219 -0.0183048 0.0376705 0.0517317 -0.0237773 0.016151 0.000546223 0.0263783 0.0335922 -0.00365943 -0.0855212 0.0235279 -0.0205918 0.0234233 -0.0445017 -0.00244989 -0.0458441 -0.0199538 0.011846 -0.00983895 -0.0295889 0.00118354 -0.0251586 0.0205071 -0.0286208 -0.0472518 -0.0819518 0.0380557 0.0176133 0.00665159 -0.000886249 0.0145317 -0.00461288 0.030304 0.0218734 -0.0158334 0.0326665 0.0190507 0.0375299 -0.0391159 0.0135211 0.0412949 0.013065 0.00273879 -0.00205791 0.0121622 0.0319885 0.0137239 0.0845911 -0.0123883 -0.0212873 0.0163624 -0.0102043 -0.0161565 0.0289429
and -0.012019 0.0173807 -0.0555782 -0.0389995 0.0743004 0.0477654 0.0519109 0.0888525 -0.0488874 0.0218404 -0.0167512 0.0316577 -0.0649127 0.072276 -0.0532292 -0.0479841 -0.0485415 0.0358627 -0.0178018 0.0125472 0.00938055 -0.00714404 -0.00476089 0.00632107 -0.0164055 -0.0638574 0.0402386 -0.00711709 0.0132891 0.00756524 0.00232775 -0.0281345 0.0747011 -0.0453859 0.0180642 0.00523818 0.0335806 0.0952312 0.00613971 -0.0415665 -0.00423019 -0.062284 0.0568555 -0.0452942 0.00471178 0.0444163 -0.00533883 0.0522541 -0.0838611 -0.0272629 0.025564 -0.00614153 -0.000369726 0.0329703 0.0273418 0.00661339 0.022513 -0.0105264 0.034913 0.0589077 -0.0210436 0.0131552 -0.0196611 -0.0425722 -0.0303765 0.0239744 -0.0440625 -0.00106255 -0.0165874 0.00892577 0.0188758 -0.0833286 -0.0220878 -0.0459116 0.0320171 -0.0652795 -0.0628923 0.0293224 0.00754507 0.02635 -0.0157682 0.0594014 0.0189684 -0.00628286 -0.0570993 -0.0159025 -0.00218891 0.0100906 0.00831843 0.0303375 -0.00951934 -0.0259511 0.00965708 -0.0612511 0.000932778 -0.00537036 -0.0470245 0.0225812 0.0286004 0.0451438 0.0506277 0.0195069 -0.0362887 0.00164138 -0.0264957 -0.0100306 -0.032014 -0.0175109 0.00519791 0.0315831 -0.00599994 -0.0447073 -0.000535879 -0.0332337 -0.0311552 -0.0594584 0.025228 0.0163704 -0.000275821 0.0103508 -0.0320143 0.000365637 -0.0125584 0.00571795 -0.0318366 -0.019962 -0.0133906 -0.0425463 -0.0316459 0.00389799 0.103734 0.00319481 -0.0266653 0.000282287 -0.00933868 0.00226373 -0.0417564 -0.0408433 0.0214573 -0.0171519 -0.0138216 0.0487775 -0.00683842 0.0160627 -0.0584516 0.0466821 -0.0722248 0.00468301 -0.0250223 0.0725429 0.015459 0.00407771 0.0210397 -0.0455751 -0.0605856 -0.026873 -0.0112326 0.0842209 -0.00554599 0.0166513 -0.0075036 -0.0294217 -0.0144551 -0.016959 -0.0451483 -0.0353335 -0.0220014 0.0118978 0.0967914 -0.0213432 0.058316 0.0210554 0.0443358 0.0275954 0.0177924 -0.0391421 0.0165782 0.0364828 0.0140221 -0.0296532 0.031835 -0.0266913 0.00748768 0.0181649 -0.0196037 -0.0459942 -0.0586774 0.033957 -0.00510721 0.010531 0.0145386 -0.00311807 0.0348698 0.0327441 0.0146466 -0.0332841 -0.0321971 0.0383046 -0.0404687 0.0101539 -0.0347728 1.57233e-05 -0.0544157 0.0538744 0.0354335 0.00994162 -0.0287435 -0.0353402 0.0523178 -0.0770373 0.0429634 0.0234177 -0.0157584 0.00924837 -0.0151518 0.00901848 0.0292268 -0.000620811 0.0114638 0.0338233 -0.00333175 -0.0698785 0.0163551 -0.022894 0.0194965 0.00197227 0.0963383 0.0322675 -0.0250266 -0.0584828 0.0310687 -0.0110995 0.0344584 -0.0189687 -0.00676036 -0.0127066 -0.0533774 -0.0757071 0.00107682 -0.0236726 -0.0339369 -0.0611912 0.0166287 0.0164716 -0.0474046 -0.00993033 -0.0340486 0.0125736 0.00993029 -0.0212 0.0338921 -0.0125239 0.0329716 0.0182937 0.0253493 0.0544389 0.00419369 0.0727729 -0.0397 -0.0161554 0.0289706 -0.0475378 -0.0146403 -0.0578662 -0.00513136 0.0357322 0.0235234 0.00420916 0.00394189 -0.020806 -0.0435592 -0.00418653 0.00177141 0.0119288 -0.0783232 -0.00375693 -0.00921309 -0.020556 -0.00979373 -0.0693683 -0.0221431 -0.0183781 -0.0215834 0.0338944 0.0383693 -0.0967274 0.00873293 -0.0343934 0.0664481 0.0533919 -0.0156102 -0.0738538 0.0373251 0.0109528 -0.0726012 -0.0369264 0.0331842 0.0161354 -0.0824063 -0.0179498 -0.0365276 -0.0167301 -0.0784125 -0.00618953 -0.00189582 -0.0140307 0.0413074 -0.00703197 -0.0490523 0.0361625 -0.0303755 0.0314729 0.0223372 0.015857 -0.00452963 -0.0464021 0.0257867 0.0442642 0.00129718 0.000698015 -0.121756 -0.00197233 0.0945842 0.00604834 -0.0865292 -0.03258 0.0114197 -0.00341083 -0.0426315 -0.0343142 -0.0593175 -0.034958 0.0381784 -0.000167989 -0.0866432 0.0129443 0.00508351 -0.0273291 0.0193046 0.0091548 0.0172938 0.0127446 0.00654136 -0.0268494 -0.0367034 -0.0480502 -0.0564363 -0.0741125 -0.0124213 0.0662253 0.0307157 -0.010544 -0.00420782 -0.00498735 0.012682 -0.0645566 -0.00937622 -0.0857051 -0.0176695 0.0250574 -0.0154461 0.0103007 0.00533009 -0.0574637 0.0501934 -0.0300013 -0.00882613 -0.0443015 0.0593038 -0.0421667 -0.012012 -0.0139195 0.0299156 -0.061332 -0.00273817 0.0478591 -0.0219408 -0.00448075 0.0434955 -0.00768885 -0.0426284 -0.0423697 0.00672805 0.0402266 -0.0352006 0.00340603 0.04269 -0.0160445 -0.0213718 0.0703336 -0.0132104 0.0448553 0.00852935 0.0252688 -0.0352913 -0.00624063 0.0232545 -0.0295461 -0.00676306 0.026402 -0.0116658 -0.0152176 -0.00984276 -0.0272216 0.0102747 0.0447369 -0.0215251 -0.0214089 -0.000247654 -0.0461225 0.0154256 0.0424203 0.022861 -0.0243977 -0.048877 0.0360997 -0.0130257 0.0101455 0.0553046 0.0275071 0.0310623 0.0277763 -0.0631072 0.00853947 0.0326742 -0.00176636 0.0135308 -0.0310459 0.0591717 0.0112966 0.00584306 0.0525563 -0.118156 -0.0698238 -0.0306986 -0.0340664 0.0310061 0.0363892 0.0416836 -0.00687411 -0.0109139 -0.0841117 0.0264533 -0.0217019 0.0081504 -0.0099068 -0.012694 -0.0344258 -0.114373 -0.0182087 -0.00895746 -0.0198234 0.00810436 0.0136127 -0.00395275 0.045892 -0.00525338 0.0349779 0.0382821 0.0634951 0.0219083 -0.00513107 -0.0456606 -0.0217589 0.0291296 -0.021034 -0.0254364 0.0426855 -0.030398 -0.00747368 -0.0355845 -0.000365393 0.0234582 -0.0289868 -0.0338203 0.000253608 0.00349282 0.0483146 -0.0306995 -0.0426784 0.0261462 0.0189776 -0.0643864 0.0560557 0.0301182 0.00759862 -0.0389947 -0.0214743 -0.0436069 -0.0212305 0.0344475 0.057219 -0.0200078 0.00511435 0.00663278 -0.0556323 -0.0834078 -0.00280464 0.0496785 -0.0157172 0.0178034 0.0103495 -0.0740488 -0.0314545 -0.00336498 0.00554655 -0.0307344 0.00523286 0.00351874 0.0550482 0.00791739 -0.0406963 -0.0783505 -0.00275228 -0.0385699 -0.0430449 0.0559105 0.0463741 -0.0446306 -0.0190674 -0.0102263 -0.0131344 -0.0558697 0.00647999 -0.0130173 -0.0341401 -0.0328113 0.0156602 -0.00191104 -0.0360238 -0.0394799 0.0371065 0.0458696 -0.000489156 0.0189395 -0.0187783 -0.0157228 -0.0055688 0.00700626 -0.0141757 0.0188198 0.0354558 0.0211956 0.00979322 -0.0132818 0.00110508 0.0297868 0.0276504 -0.00383008 0.0171195 -1.34205e-05 -0.0242303 -0.00246536 -0.0864917 -0.0526416 0.0404738 0.0431277 -0.0398132 0.0131588 -0.0123631 -0.0159318 0.0728792 0.0650939 -0.0104644 0.0368445 -0.0404233 0.0490591 -0.0505033 -0.0223309 -0.0152845 -0.025343 0.00708673 0.0144643 -0.0209508 0.0141562 -0.0203222 -0.00391897 -0.00903987 -0.0299656 0.0305503 -0.0122171 -0.00135308 -0.0132534 -0.0390864 0.00917085 0.0390594 0.00567996 0.0255285 0.00439677 0.0177769 -0.0309679 0.0432402 0.0170104 0.0349956 -0.041559 0.0244435 -0.0328084 -0.0946137 -0.0155052 0.0375773 -0.0505263 -0.0478661 -0.00571671 -0.0046939 -0.0164063 0.0132443 0.00457456 -0.0168666 0.0288719 0.000950361 -0.0272145 -0.043687 0.0191203 -0.0109931 -0.00374685 -0.0704965 0.0380074 -0.0274134 -0.0688412 -0.000657677 -0.00802176 0.0380496 0.0818521 -0.00279336 -0.0154692 -0.0123072 -0.012043 -0.0375658 0.021697 -0.00494403 -0.00532808 0.0210143 0.0168783 0.0187529 0.0221463 -0.00594435 -0.0395869 0.00512948 -0.000451015 0.0303766 -0.0246566 0.0289267 -0.0453164 0.0209375 -0.0389156 0.0157686 0.0464668 0.0203179 -0.0598478 0.0391229 0.00410679 0.0113464 0.00339211 0.034753 0.00618808 0.00979604 -0.000682825 -0.0244095 -0.0666759 0.00500228 -0.00220156 -0.000709671 -0.00519325 0.00567877 0.0549695 -0.054686 0.0519123 0.0141534 -0.00399972 -0.111385 0.00101318 0.00108553 0.0444568 -0.00894213 -0.0311706 -0.0974946 0.0266581 0.0500091 0.0178579 -0.00194794 -0.00618573 0.0094165 0.0839039 -0.00850182 0.0197371 -0.0227722 0.0470114 -0.0401169 0.0212852 -0.057852 -0.0112593 0.0426537 0.00198331 -0.026235 0.0144735 -0.051641 0.0138271 0.0673167 0.0186749 0.0144186 -0.0131261 -0.00719595 -0.0204621 -0.018107 -0.0214974 -0.00470886 0.0183361 -0.0126666 0.0484261 0.0476459 0.0225267 0.0363499 -0.00458066 0.0606627 -0.0420318 0.0380145 0.0632352 -0.00689213 -0.0327992 0.0103163 0.0668696 0.00980137 0.0115798 -0.0889588 0.0404816 -0.010349 0.0637939 0.0137323 -0.0357443 -0.0533108 0.0166859 0.055227 -0.0198589 -0.0578002 0.0010741 -0.0318827 0.00883641 -0.0187626 -0.0139787 -0.00756382 0.0299552 0.00178245 0.0391133 0.00792929 -0.0335616 0.0321501 -0.00321735 0.0205954 -0.0206197 0.0499211 0.00215057 0.0445495 -0.0294484 0.026117 0.0560319 0.0220562 -0.0295237 -0.0220222 0.00699319 0.0250613 0.0279558 0.0394369 0.0193753 0.014705 0.0216552 0.0156579 0.0173214 0.00619169
" -0.0100844 0.0386016 -0.0853611 -0.0453574 0.0754724 -0.0138545 -0.0265145 0.0964213 -0.0427237 -0.00923657 0.0517844 0.0642841 -0.0652091 0.0534929 0.00864218 -0.047328 -0.0552351 0.0410559 -0.0134221 0.00728462 -0.076413 0.0216213 -0.0185289 0.0188744 0.0169447 -0.0309958 0.00959642 0.0580214 0.0420736 -0.00669543 0.0185075 -0.00651945 0.0405299 0.0101182 -0.0780426 0.011089 0.0189418 0.0439165 0.00345238 -0.0407603 0.0205814 -0.0331202 0.0838764 0.00225812 -0.00841203 0.0284864 0.0154452 0.0342167 0.0214934 -0.0290542 -0.00141623 -0.00882032 -0.0294172 0.0356796 0.0406797 0.0483828 0.00485394 -0.0147543 0.0222684 0.00872717 -0.00484995 -0.0252147 -0.0213306 -0.0755887 0.013226 0.0400135 -0.0500845 0.040554 -0.0191687 -0.0713683 0.0112461 -0.0303546 -0.0206843 -0.114606 -0.0286028 -0.00237606 -0.0933236 0.0541265 0.0656145 -0.0196664 -0.0396372 0.0533605 0.028509 0.0188865 -0.0364276 -0.0925796 0.0618058 0.0619428 -0.0199093 0.0540147 -0.0289261 -0.011817 0.00847962 -0.0428148 -0.0681611 -0.0517558 -0.0489863 0.0173067 0.0251661 -0.0195427 0.0542325 0.0322047 -0.0279616 -0.00977086 -0.0631606 0.0288352 -0.057297 0.0257156 0.0323663 -0.0199565 0.01488 -0.0149368 0.00466609 -0.0146282 -0.00962709 -0.0736291 0.0213999 0.015967 0.0198824 0.000803505 -0.015652 0.00373987 0.0023726 0.00796495 -0.019469 0.0123777 -0.0318392 -0.0687157 -0.0045218 0.00827747 0.0943553 0.0277608 0.00105597 0.0235404 -0.019582 -0.0201571 -0.00547864 -0.0191449 0.0348504 -0.0608086 -0.0199581 0.0425164 0.0145602 0.00396081 0.0611387 0.0517273 -0.00799373 -0.00922587 0.00297143 0.0249944 -0.0177592 0.0335438 0.0255825 -0.0214316 -0.0075008 0.0157884 0.00862685 0.101247 -0.00496967 0.0575709 -0.0204988 -0.0274612 -0.0224695 -0.0403772 0.00838069 0.0371797 -0.0245534 0.0303737 0.0550622 -0.0209104 0.0670449 0.0258054 0.058452 0.0138399 0.0513058 -0.021285 0.0260455 0.0220134 0.0361012 0.00500793 -0.0270589 -0.00194906 0.0083882 0.00666032 0.00419232 -0.00743215 -0.0436564 0.0197095 0.00986991 -0.0250104 0.0339314 -0.0338263 0.0531693 0.0199837 0.00777877 -0.0718666 -0.0318994 0.0303113 -0.0267518 0.108837 0.00435451 -0.042975 -0.0658919 0.0466358 -0.00337232 0.00104107 0.050628 0.0113433 0.0141436 0.0121644 0.034869 -0.0192482 -0.0350408 0.0281462 -0.0428056 0.00499526 -0.0204294 0.0158917 0.0314302 -0.00594491 0.0065063 -0.0749012 0.0223418 -0.00152932 0.00687225 0.0265822 0.0402101 -0.0175065 -0.0408975 0.0197578 -0.0231642 -0.00970129 0.0246601 0.00821813 0.00258449 -0.0561725 -0.00919305 -0.0382644 0.0302329 -0.00190905 -0.0135174 -0.0375629 0.0249905 0.0148698 -0.0258233 -0.0429291 -0.0345003 -0.0211674 0.0187311 0.0220165 0.021313 -0.0361488 0.0360533 -0.0141465 0.0614301 0.0413274 0.00610882 -0.00938141 -0.0347917 0.00570396 0.0129177 -0.0562161 -0.0199004 -0.0346726 -0.0518419 0.00769372 0.00479646 0.0570365 0.0512417 -0.00736733 0.000710039 0.0567936 0.00786661 -0.0127465 -0.0181726 -0.0205818 -0.0153117 -0.03119 -0.0302097 -0.0186445 0.00938522 -0.00782929 -0.0086278 0.0271021 -0.00231061 -0.0438149 -0.0420395 0.0335632 0.0556022 -0.000959204 -0.000174222 -0.0448038 0.0379905 -0.0328054 -0.00484359 -0.0600895 0.0394057 0.0177952 -0.0636639 -0.00878598 -0.0136735 0.00325912 -0.066035 0.0055913 -0.00722247 -0.0284038 0.0115012 0.0215652 -0.0287529 0.0769891 0.0203228 0.0174243 0.0236885 0.0560081 0.0218633 -0.00936012 0.01644 -0.00048758 0.0671206 0.0401784 -0.0795154 -0.0168888 0.0671408 0.0438601 -0.0775902 -0.051856 0.0324243 -0.02177 -0.0625779 -0.0287641 -0.0780007 0.0122359 0.0461868 -0.00334035 0.00331984 0.00543958 0.0576834 0.0184838 -0.0107532 0.0210975 -0.00724142 -0.00662923 0.00717842 0.0147597 -0.0269334 0.0272219 0.00906306 -0.0123355 0.00829672 0.0976547 -0.0206444 -0.0537336 -0.0210484 0.0468447 0.0101061 0.0123715 0.017699 -0.0660209 -0.00345083 -0.0258677 -0.0225683 0.0213124 0.0347388 0.0171556 0.0368672 0.00682107 -0.029798 -0.0767918 0.0209146 -0.000589382 -0.0156129 -0.00523007 0.0385331 0.00934232 0.0146822 0.043556 0.0333098 0.0195513 0.0381257 -0.0239704 -0.00932718 -0.0363375 0.00424295 0.0530551 -0.0362829 0.0047559 0.0025469 0.0130338 0.000600773 -0.0275144 -0.0049186 0.025136 -0.0117532 0.0327096 -0.0208257 -0.00641839 0.0113962 -0.0115746 -0.0179787 -0.0112719 -0.00200544 -0.0378875 -0.0134244 -0.00807294 -0.0779424 -0.0265488 -0.0746456 -0.0409723 0.056748 -0.032083 0.0470654 0.0120123 0.0190822 -0.00985938 -0.0160721 0.0374044 -0.0328524 -0.00613609 -0.00872876 0.0704578 0.0530009 0.0188877 -0.0548489 -0.00276171 -0.0146369 -0.00463805 0.00514854 -0.0231398 0.0063364 -0.0106321 0.0233665 0.0506227 -0.0528511 0.0115625 -0.0483398 -0.0272683 -0.00534587 0.0292843 0.0521114 -0.0369905 0.00733291 -0.0517851 0.0987044 0.01643 0.0186394 0.0442233 -0.0396974 0.0708256 -0.055781 -0.031832 -0.00214669 -0.0799833 0.0348688 0.0123877 -0.0139903 -0.00346458 0.0019906 0.024046 -0.0243124 0.0669403 0.00686686 -0.0432793 -0.0058135 0.0288166 0.0391692 -0.0439772 -0.0757141 -0.0227632 -0.000705827 0.00127433 -0.0302784 -0.0542946 -0.0590965 -0.0402704 -0.0185645 0.0410843 -0.0565604 -0.0275715 0.00101311 -0.0528552 0.00225647 0.0192557 -0.0703085 0.0647785 0.0137601 0.0383237 -0.0266593 -0.00998098 -0.0160563 -0.034922 -0.0165336 0.0277416 0.0107749 0.0319334 -0.00469799 -0.00635123 -0.0424765 -0.0217113 0.0415545 -0.00379796 0.0458136 0.0219299 -0.0737695 -0.0373976 0.00773257 0.0349869 -0.0548565 0.0189377 0.0238793 -0.00492627 -0.0121701 -0.0545747 0.00062809 -0.0576977 -0.0327436 -0.059016 0.0158034 0.045739 -0.0392398 -0.0465832 0.0289803 -0.0144528 -0.020576 -0.0121665 -0.0620463 -0.0083566 0.0248927 0.00964352 -0.0130182 -0.0682214 -0.0401637 0.0274424 0.0128405 0.0143715 -0.0259021 -0.0485487 -0.0489865 -0.0447347 -0.00223812 0.0276089 -0.0233988 -0.029556 0.0362551 -0.0627063 0.0233536 -0.0570617 0.0259142 0.0225259 0.0383266 0.0826997 -0.0166897 -0.0450023 0.0498614 -0.0567191 -0.0134951 0.0392376 0.0156227 0.0290754 -0.0106512 -0.0156546 0.0308434 0.016509 0.0313986 -0.0370203 0.0520168 0.027169 0.029779 -0.0498666 0.0168859 -0.0164084 -0.0218327 0.0442421 0.00644832 -0.0292253 -0.00904495 0.0299904 -0.0096062 -0.00957636 -0.0128702 0.0419957 -0.000372952 0.0314204 0.00720008 -0.0707638 0.00773795 0.0845881 -0.0269379 0.00428693 0.0436276 -0.0301288 -0.0570788 0.00282532 -0.000246126 0.0275456 -0.0291508 0.0357603 0.0121715 -0.0625959 -0.0250698 -0.00834855 -0.0334393 -0.0170756 0.00687802 0.0394924 0.0237554 -0.00164572 -0.00821804 0.0120888 0.0121253 0.0429749 -0.0447017 -0.0401458 0.00543435 0.00415566 -0.0483041 0.00180326 0.0362891 0.00965314 -0.0289107 -0.00613002 0.00321336 0.0149036 0.0677801 0.107097 -0.0102875 0.00361702 -0.0503338 -0.0320201 0.00013473 -0.0111805 -0.0171486 0.00339349 0.02695 0.00557335 -0.0547927 -0.00590649 -0.064721 0.0489157 0.0173484 0.0347164 0.0180967 0.0461918 -0.0350776 -0.0202933 0.0191272 0.0221871 0.0378203 0.0277739 -0.0210134 -0.0101521 0.0180009 -0.015046 0.0266028 0.0320834 -0.0185649 0.00393063 -0.0160272 0.035167 -0.0638199 0.00121142 0.0464209 -0.00802361 0.0400287 -0.0691452 0.0415331 -0.0515665 0.0228461 0.0134584 0.00794811 -0.130347 0.0253706 -0.033725 -0.0139982 0.00501796 -0.0244768 -0.0616064 0.0213413 0.0354022 0.070157 0.0336015 -0.014652 0.0324229 0.0257961 -0.0465704 -0.000583709 -0.0196503 0.0341936 -0.00933169 0.00448797 -0.0303755 0.0554394 -0.0053407 -0.0123455 0.0255354 0.0205177 -0.0197038 -0.0034211 0.0406027 -0.0133019 0.0095063 0.00920262 0.0069612 0.0231841 0.0197928 0.0466209 0.0211799 -0.0148013 0.0234431 0.0402694 -0.00735688 0.0233143 -0.0474244 -0.0280295 0.0037166 -0.0365375 0.00185279 0.0203457 -0.0687208 -0.0139372 -0.0461789 0.0219094 0.040939 -0.0099172 -0.0652242 0.0264298 -0.00331562 0.0291749 0.0141542 0.0360838 -0.0078169 -0.00471445 0.046537 0.00680618 0.00507571 -0.00272562 -0.0577169 -0.0238488 -0.00111651 0.0289826 -0.0245354 -4.3194e-05 -0.00718052 0.0699485 -0.00138006 0.00925476 0.0202559 0.00976543 0.0715729 -0.00533613 0.0318204 0.0388643 -0.000521256 0.0373115 0.0282039 0.0619628 0.0627085 -0.0375614 0.0543046 0.0108478 0.0457138 0.0259935 -0.00197129 0.0268427 -0.126002 0.00650568 0.0389822 0.00101953 0.0178963
in -0.01089 0.0350211 -0.0152552 -0.0436785 0.0464991 -0.00583829 -0.0119716 -0.00506612 -0.0319256 0.0188902 -0.0258044 0.00242847 -0.0568717 0.0307581 -0.0925498 -3.01913e-06 -0.0235209 0.0338203 0.00194824 0.0275521 -0.0492186 0.0070497 -0.0154538 0.015765 -0.00970733 -0.091692 0.0205864 0.00719146 0.0117768 0.0198927 -0.0249154 -0.057093 0.0480095 -0.0197693 -0.0213073 0.0281684 0.0255434 0.0887644 0.0090292 -0.0195754 -0.00703737 -0.0614048 0.0936798 -0.00438336 -0.0166966 -0.00372692 -0.00560436 0.0253014 -0.0495168 -0.0155078 0.027145 0.00690672 -0.0146081 -0.00210613 0.0540357 0.00916265 0.00624235 0.0215917 0.0192786 -0.0153874 -0.0348335 0.00947782 -0.013672 -0.0991121 -0.0277724 -0.00297125 -0.0183891 -0.0192645 -0.00791644 0.0159051 0.0419583 -0.0751777 -0.0256369 -0.0788046 0.0619816 -0.0742732 -0.0872229 0.0626519 -0.0196625 0.0783358 0.0175945 0.102185 0.040121 -0.0304223 -0.0605435 -0.0113692 0.00786249 0.0417191 -0.021957 0.0284951 0.0107774 0.0347789 0.0165829 -0.0142294 0.00365707 0.0276928 -0.037916 0.000643537 -0.0207559 0.0263312 0.0788636 0.0394757 -0.028549 0.00218156 -0.00291605 -0.000952889 -0.0341489 0.013242 0.0334239 -0.0328496 -0.0101411 0.0170489 0.0210832 0.0018945 -0.011428 -0.0475053 0.0292878 0.0653483 0.0330084 0.045501 -0.0372325 0.035591 -0.0141182 -0.0590737 -0.0206153 0.0180502 -0.00732153 -0.0695137 -0.0400223 -0.0201854 0.0909013 -0.0306302 -0.0335732 0.0281881 -0.00954235 0.0198448 -0.0293602 0.00235276 0.0153175 0.0031049 -0.0141826 0.00588752 0.0561002 0.0424863 0.00808104 0.031049 -0.018821 -0.00955739 0.0172275 0.0559456 -0.0383067 0.00810144 -0.00136686 -0.045091 -0.0401789 -0.0290627 -0.0169143 0.0821746 0.025477 0.00458965 -0.0491962 0.0370273 0.00380904 0.0228675 0.00857386 -0.0336518 -0.00405817 0.00451882 0.0364145 0.00918522 0.00841326 0.0512901 0.0295902 0.0473071 0.0158275 0.0126755 -0.00563362 0.002107 0.0204659 0.0262396 0.0249564 -0.0562563 0.047617 -0.00581476 0.0110955 -0.0369551 -0.0706881 0.02656 -0.0169599 -0.0205318 0.0147283 -0.0167537 0.0556808 0.0380289 -0.0199575 -0.0491039 -0.0215433 0.0151451 -0.0506061 0.0559431 0.005551 -0.0261591 -0.0381348 0.00485417 0.0178979 -0.0722522 -0.00706642 -0.0437432 0.0438179 -0.0500741 0.0614793 -0.0142658 -0.0231353 -0.0112454 -0.0194688 0.0321391 0.00302319 -0.00334335 0.0223565 -0.01111 0.0177476 -0.133959 -0.000535414 -0.0123851 -0.0178782 0.018645 0.0714471 0.0198708 -0.0133519 -0.0466944 0.0130196 -0.0268993 0.000569444 0.025302 -0.00706233 0.0180734 -0.0241865 -0.0186276 -0.00441358 0.00947133 0.0167783 -0.0338053 -0.0346586 0.0240494 -0.0384554 -0.00776908 -0.0462525 0.0151442 0.0172043 -0.00289701 0.0617118 0.0370728 0.0507992 0.0255691 0.0378369 0.0433079 -0.0124604 0.0151068 -0.0469013 -0.00536582 0.0109086 0.00547132 -0.0352115 -0.0372772 -0.000893402 0.0141236 -0.00237305 -0.00896899 0.021614 -0.046899 -0.0820065 0.00602617 -0.0242769 0.0189719 -0.00897441 -0.0338306 -0.00494175 -0.0115332 -0.046732 -0.0615629 -0.0395864 -0.0554653 -0.0429413 0.00213044 -0.0235456 -0.0693241 0.00496059 -0.0423211 0.0902905 0.00920463 -0.00498441 -0.0480799 0.0334677 0.00478826 -0.0439899 -0.00306228 0.0711889 0.0186449 -0.0510945 -0.0322946 -0.00962527 -0.0102394 -0.0414198 -0.0199867 -0.033748 -0.0334403 -0.0118572 0.035089 -0.016784 -0.0122505 0.00865316 0.0186474 0.00712028 -0.0122078 -0.0189407 -0.00948038 0.00457577 0.00826886 -0.00373465 0.0216209 -0.126374 0.0193793 0.0764705 -0.0088345 -0.0748256 0.00497568 0.0444791 -0.0215434 0.00142534 6.48211e-05 -0.0463861 -0.0467097 0.0503161 0.0517915 -0.0203591 -0.0164794 0.0120189 -0.0225821 0.00536245 0.00655588 0.00290384 -0.0162045 -0.054796 0.00738684 -0.0502275 -0.00599234 -0.0394396 0.0171971 0.000448376 0.0826597 0.0301395 -0.0142524 -0.0189351 0.00165438 0.014058 -0.0753504 0.0075445 -0.0812228 0.00116663 0.00683279 -0.0492552 0.0377957 0.0120022 -0.0367228 0.0511319 0.00304868 -0.0134486 -0.0338951 0.0223252 -0.0495528 -0.0238811 0.00617914 -0.0361225 -0.0682053 0.00607011 0.0629536 0.00525049 -0.0169331 0.0392844 -0.021986 -0.0523619 0.00334809 0.013737 0.0446915 -0.0255054 -0.00254966 -0.00978741 0.0148344 0.020908 0.0195115 -0.0555784 -0.0129421 -0.0170614 0.0476262 -0.0381951 0.000734931 -0.0098728 0.00305023 0.0694927 0.022604 -0.0498189 -0.0174804 0.0105267 0.0303137 0.0202612 0.023523 -0.0593347 -0.0159423 0.0222113 -0.0569737 0.0262797 0.00194752 0.0366856 -0.00229038 -0.0290679 0.0148311 -0.0436198 0.0247401 0.0241194 0.0200156 0.0201637 0.00920681 -0.0749078 0.00476132 0.0462455 -0.0257061 0.00392002 -0.0496516 0.0122834 0.00391568 0.00739438 0.0873237 -0.0155131 -0.0486355 -0.0171241 -0.0174327 0.00914848 0.0661213 0.0666418 -0.0257874 -0.0280084 -0.0335304 0.0211085 0.0083356 -0.0100521 -0.0173659 -0.0270272 0.0196678 -0.0691414 0.00717371 -0.0317388 -0.00395479 0.019522 0.0184193 -0.0288509 0.0749842 0.0092003 0.0869627 0.0111083 0.053153 0.000956996 -0.0481072 0.00429704 -0.0166616 0.0270915 -0.0226327 0.0190886 0.0459688 -0.0185758 0.00984289 0.00995661 -0.0374868 -0.0204133 -0.00161105 0.00941968 0.0161637 -0.0668593 0.0568644 0.0208474 -0.0256907 0.0406951 -0.00706144 -0.0773576 0.0725415 0.0532654 -0.047958 -0.0592176 -0.0394794 -0.0511387 0.0109206 -0.00431152 0.0304106 -0.0210035 0.00974684 0.0477308 -0.0404444 -0.0675752 -0.0242156 0.0487694 0.00942686 0.00545634 -0.00319021 -0.0981111 -0.0208856 -0.0103273 0.00448712 -0.00676773 0.0217228 0.022749 0.0480668 -0.0270649 -0.0663438 -0.0505521 -0.036692 -0.0178786 -0.000268612 0.0695036 0.00986161 -0.0658201 -0.0217735 0.00466345 -0.0484738 -0.0648867 -0.0285651 -0.0107093 0.0232323 -0.0474373 0.00570795 0.00918812 -0.099286 -0.00848777 -0.00939795 0.0546477 0.0309383 0.00837285 -0.0419516 -0.0164343 -0.0323286 -0.0284739 0.0333895 0.038277 0.0132929 0.0819951 0.00199042 0.0321638 0.0117264 0.0357663 0.0504534 -0.0468531 0.0960002 0.0595773 -0.0818625 -0.0397866 -0.0401866 -0.0810332 0.0697607 -0.00722843 -0.0200851 -0.0326858 -0.0274673 0.0241971 0.0420055 0.0585597 -0.0088734 0.0281882 -0.0240679 0.0508007 -0.0350004 -0.0199083 -0.00620563 -0.0379034 -0.0185198 -0.00583573 -0.0431203 -0.00798151 -0.0350613 -0.0499583 0.0380744 -0.0480261 0.0284626 0.0143504 -0.0278471 -0.0465099 -0.0209971 0.0123644 0.0182629 0.0107697 0.0122586 -0.00406928 0.0362439 0.00636278 -0.00414644 -0.032702 0.00650352 0.019642 0.0473193 -0.0173576 -0.0675942 -0.0417943 0.00469451 -0.0426427 -0.0322104 -0.0285576 0.028216 0.0166193 0.0252026 -0.0105987 -0.0334579 0.0132773 0.0272983 0.0207185 -0.00360863 0.0546036 -0.0255891 -0.0427125 -0.0151495 0.0141903 -0.021426 -0.0485077 0.0172544 -0.0407215 0.0315273 0.055433 0.0556359 -0.0404328 -0.0473965 0.0278627 -0.0158388 -0.037946 0.021235 0.00102304 -0.020731 -0.00212633 0.0100121 -0.056084 -0.0335126 -0.0594323 -0.00441166 -0.00545624 0.0246309 -0.0310846 0.0482209 -0.0266933 0.0161354 -0.0105325 0.0051379 0.046904 0.00856218 -0.0571993 0.0487638 0.0156142 -0.0367983 -0.0135842 0.0400904 0.0172827 -0.00154793 -0.0628841 0.0211192 -0.0795028 0.00186796 0.0367126 -0.00628203 -0.0186688 -0.0260626 0.0648701 -0.0626798 0.00389836 0.0511097 0.0307439 -0.0570274 -0.0192482 0.00263588 0.00236664 -0.0348604 -0.0368438 -0.0250912 0.0299487 0.062274 0.0471157 -0.00656163 -0.00180322 0.0153367 0.078154 -0.065399 0.0031304 -0.0063534 -0.00231664 -0.0164795 -0.0412024 -0.0242832 -0.0216246 0.0215964 -0.0195811 0.0547487 0.0692207 -0.0464271 -0.00902614 0.0307986 0.0291283 -0.00247867 -0.0304895 0.0207447 0.0237415 0.0390991 0.00769618 0.0129586 0.0280937 0.00913118 0.0486364 0.000154011 0.0300823 0.0282666 -0.0187829 0.0598537 -0.0310711 0.0211249 0.0254477 -0.0440111 0.0289774 0.0157856 0.00430567 -0.0194268 0.0186237 -0.0914289 0.0457645 -0.0133105 0.0387124 0.0246251 0.0385293 -0.0154104 0.0397215 0.0477183 -0.00493934 -0.0197996 -0.0208999 -0.017253 0.0067334 0.0397931 -0.0289291 0.0333088 0.0215759 0.0384486 0.0130841 -0.0186258 -0.0174354 -0.0215628 0.0486888 -0.0118054 -0.0113236 0.0156661 8.40555e-05 0.0491903 -0.0106429 0.0216482 0.0237516 0.0307839 -0.0183646 0.0144317 0.0392754 0.026374 0.0347658 0.0418724 0.00177649 -0.0386951 0.0315332 0.0610889 0.0381379 0.00185973
to -0.0368749 0.0220407 -0.0460469 -0.045235 -0.0292199 -0.00462131 -0.0140473 0.0774395 -0.0550467 0.00538648 -0.0141836 0.000896892 -0.0734288 0.0874581 -0.0389705 -0.0497903 -0.0356881 0.0152382 -0.0296792 0.0369116 -0.0125897 0.00152306 0.0024896 0.0557921 -0.0375384 -0.0931127 0.0279757 0.0018305 -0.0129412 0.0516779 -0.0544519 -0.0107002 0.0608647 -0.00207362 -0.0171862 -0.0414998 0.0421895 0.0700497 0.00973164 -0.00924358 -0.0257182 -0.079915 0.0585041 -0.0407076 -0.07359 0.0132499 -0.0194354 0.0317967 -0.0172602 -0.00215732 -0.0287234 -0.0242772 -0.017874 0.0347592 0.0248958 -0.0199798 0.00738658 -0.0159204 -0.025144 0.0515955 0.00111693 -0.0212044 0.0245604 -0.0789528 -0.0752998 -0.0043546 0.036812 -0.0181853 -0.0252635 -0.0197983 0.0215535 -0.0585986 -0.0233705 -0.016792 0.0454555 -0.0742209 -0.0571112 0.0209687 0.0313741 0.0539386 0.0157024 0.14268 0.0316752 -0.039633 -0.0286728 -0.00849317 0.0110112 -0.02277 0.00655913 0.0357543 -0.0127377 -0.0119991 -0.0144286 -0.014844 -0.00357236 0.00994648 0.00356881 0.0118695 0.0265257 0.0625519 0.0745629 0.0516975 -0.0705893 0.00541435 -0.0021913 0.00826716 -0.050848 -0.0285528 0.0454585 0.0273665 -0.0213679 0.0159138 -0.023362 -0.0158049 -0.017712 -0.0543144 0.0166924 0.0405072 -0.00783806 0.049466 0.0046479 0.00364119 -0.0477739 0.0222729 -0.0336898 -0.0149616 -0.0281077 -0.0553362 -0.0338316 0.000203171 0.0709008 -0.0230255 -0.017169 0.0747592 -0.0274787 0.0425751 -0.00594184 -0.0230326 0.0343958 -0.0209336 0.01401 0.0305853 0.0386071 0.0496614 -0.0563288 0.0335718 -0.00285766 0.0128442 -0.00989128 -0.000314202 -0.024958 0.0210792 -0.00262199 -0.051231 -0.0283532 0.00934501 -0.0395834 0.0403105 0.0205143 0.0318073 0.00919804 -0.0207835 0.0316595 -0.00372864 5.58306e-05 -0.034015 -0.0138442 0.0050092 0.0604526 -0.00817016 0.000508518 0.0361485 0.0403448 0.0191639 0.0136768 0.056265 -0.0408426 0.00925495 0.0361142 0.000903421 -0.0258572 -0.00633097 0.0217282 0.0188645 -0.00393446 -0.045225 -0.046487 0.0151573 -0.00356122 -0.0219819 0.0536914 0.000701012 0.0608893 0.0113696 -0.00695938 -0.0466782 -0.0490169 0.0376829 -0.0220375 0.0340175 -0.06553 -0.0446018 -0.0514771 -0.00846922 0.0248178 -0.01515 0.0180605 0.0235098 0.0527795 -0.00240973 0.0453258 -0.0107897 -0.00220262 0.0158889 -0.0447223 0.0116681 -0.00592594 -0.0338839 0.0234936 0.000924949 -0.0176917 -0.173971 -0.0222537 -0.00895347 0.0233273 0.0088341 0.0757417 0.0165388 -0.00686124 -0.0525092 0.00283222 -0.00827505 0.0534463 -0.00916934 -0.0204609 -0.0176851 -0.0352 0.00278198 -0.0253063 0.014811 -0.00989546 -0.014566 -0.000405962 0.0235649 -0.0113762 -0.00454828 -0.0295468 0.0209018 0.00903049 -0.00737675 0.0475468 -0.00478448 0.0275818 -0.0111304 0.00777347 0.0305723 -0.0328131 0.0122526 -0.0284655 -0.0275966 -0.000213347 -0.00146546 -0.0126142 -0.0242651 0.0104801 0.0262976 0.00712076 0.0295544 0.00136498 -0.0292402 -0.0829996 0.0277073 -0.00708547 0.0469633 -0.0337038 -0.0467829 0.0315634 -0.00924327 -0.0251542 -0.0609933 -0.0407774 -0.0552837 -0.0440689 0.035963 0.00656707 -0.0550943 0.00576804 0.00419255 0.0317885 0.0401139 -0.0416475 -0.0276312 0.0407355 -0.0019533 -0.0750699 0.0266411 0.10273 0.0455195 -0.0408046 -0.0220212 0.0204057 0.031877 -0.0562443 -0.0172984 -0.00716657 -0.00553055 0.0252416 -0.00722068 -0.0699707 0.0162597 0.0246463 0.0150815 0.0237085 0.045065 0.0236269 -0.0622141 0.0378054 -0.0037996 0.0247453 -0.00435638 -0.107168 -0.0268373 0.0632429 -0.0209494 -0.0361013 -0.0096797 0.0389136 -0.042438 -0.0101251 -0.0707026 -0.0574802 -0.0226123 0.039486 0.031074 -0.0366014 -0.0306267 -0.00694609 -0.0499907 0.0104368 0.00592522 -0.00756453 -0.0198502 -0.0489852 0.0151148 -0.0328414 -0.0271289 -0.0427765 0.00575333 0.0378432 0.106867 0.0209843 -0.0286631 0.0374079 0.00855561 -0.0205124 -0.103077 0.0209205 -0.0237702 0.0146155 0.00491897 -0.0218359 -0.00767205 0.033339 -0.0688197 0.0551567 -0.00166745 0.0450386 -0.0460507 0.0664596 -0.0578863 -0.0117699 -0.00788388 -0.0468163 -0.0483105 -0.00395089 0.0695247 -0.0139055 0.0313904 0.0328101 -0.0777718 -0.0152635 0.00699031 0.0360089 0.0281016 -0.0238168 -0.0251585 0.00640669 0.0148382 0.0333851 0.0487284 -0.0238252 0.0452298 -0.0121432 0.00660655 -0.0166381 0.00494794 0.00115802 0.0104682 0.0170089 0.0113993 -0.0262741 -0.0124493 0.0231438 0.0126587 -0.00360628 0.022504 -0.0664823 0.00294095 0.0383082 -0.0540127 -0.00953418 0.0341454 0.0499266 0.0129445 -0.0541103 0.0184743 0.00528901 0.0270364 -0.0184385 -0.0145698 0.0319079 0.023787 -0.0649094 0.0120899 0.00148754 -0.0219477 0.0135327 -0.0487937 0.0413359 -0.0160565 0.0561204 0.077891 -0.00181209 0.000649398 -0.0226122 -0.0240991 -0.0458212 0.03509 0.0191135 -0.0172646 -0.00448368 -0.0681776 0.0266447 -0.000629851 0.0292546 0.0156702 -0.0433835 0.0157565 -0.07286 -0.0224339 -0.0156623 -0.0112968 -0.0236337 -0.0211575 -0.0201531 0.0284877 -0.00222594 -0.0118369 0.0167834 0.0626785 0.000693544 -0.00546258 0.00742938 0.00199512 0.0209771 -0.014227 0.0156717 0.0457495 -0.00268565 0.0389178 -0.0060287 0.0287355 0.0573736 -0.02504 -0.00584143 -0.00556603 -0.0418616 0.0784774 0.0159943 -0.0361449 0.0289977 -0.0363043 -0.0729786 0.00183194 0.0389992 0.0412094 -0.0426545 -0.0103992 0.00999019 -0.0202349 0.01236 0.0624419 -0.0447197 -0.00758694 0.0331586 -0.0299004 -0.0430834 -0.0131608 -0.0103901 -0.0195017 -0.00331913 -0.00178205 -0.0794113 -0.0188313 -0.0167596 -0.0268442 0.0298308 -0.0323974 -0.00356545 -0.00605757 0.00381304 -0.0627274 -0.0402056 0.0177681 -0.0237631 -0.0192511 0.0248592 0.0188244 -0.0325368 0.0327361 0.0189168 -0.00145834 0.00569551 0.0234128 0.010556 0.0297875 -0.000707727 0.0254531 0.0273116 -0.085756 0.0109438 0.00383933 0.0120068 0.0259098 0.00497484 -0.0574156 -0.0351154 -0.0369044 -0.00561249 0.0173346 0.00291943 0.018028 0.038081 -0.0496622 -0.0114445 -0.0028239 0.0751254 0.0300332 -0.0572676 0.0800995 0.0469609 -0.0330453 -0.00240086 -0.0738704 -0.0376329 0.0579475 0.0465601 -0.024895 -0.0284113 -0.0486079 -0.0116555 0.0478955 -0.000177524 -0.012397 0.00723306 0.00905541 0.0456335 -0.0194554 -0.0239181 -0.0123475 -0.0321479 0.0324613 0.0100786 0.0158235 -0.0320273 -0.0115212 -0.0140612 -0.0336857 -0.0189727 0.0304181 -0.0184687 0.000673779 -0.0656653 -0.0479594 0.0192848 -0.0168098 -0.0293817 0.0263083 0.0308627 -0.0227622 -0.0210347 0.0198271 -0.0101301 0.0545821 0.0075848 0.0945535 -0.049526 -0.0612587 -0.0165627 -0.0151098 -0.038596 -0.0123622 -0.0111375 0.0405333 -0.035953 0.0685275 0.0148323 0.0279788 0.0224325 0.0502279 -0.0466695 -0.0188628 0.0469159 0.00410419 -0.0365368 -0.0477297 0.015755 -0.0277759 -0.0544854 0.0152843 -0.0173657 0.0320352 0.0755772 0.0500721 0.00549251 -0.0205822 -0.019139 -0.0292454 -0.0274409 -0.00438765 0.03034 -0.0050331 0.0377982 0.00493482 -0.078608 -0.00170586 -0.0311855 0.0155875 0.00877511 0.00134605 -0.0353908 0.0216247 -0.0672741 0.0369544 0.00128695 -0.00780157 0.0341622 0.0364679 -0.0223961 0.0171535 0.00908858 0.00100988 -0.0171298 0.0437979 -0.0112888 -0.00631288 -0.0555127 -0.0641875 -0.030577 0.00120435 0.01733 -0.00963697 -0.0114248 0.0347083 0.0541534 -0.051699 0.0336294 0.0584714 -0.0160186 -0.120037 -0.0325287 -0.0079388 0.0313955 -0.00460302 -0.0320406 -0.0631841 -0.00987301 0.0589635 0.0798324 0.00785538 -0.0486082 0.0240517 0.0618063 -0.0153494 0.0266797 0.000703399 0.0111225 -0.0447834 0.0340616 -0.0435516 0.0114491 0.0389528 -0.0571142 -0.0300215 0.017737 -0.0387591 0.0123063 0.0537394 0.0398848 -0.0192956 -0.00784503 0.00753945 -0.0405074 0.00493343 0.0039396 -0.0247668 -0.00300649 -0.0121762 0.0526368 0.00762038 0.0219653 0.014108 0.0264539 0.0738309 -0.0709142 0.0416153 0.00817935 -0.0492077 -0.00419445 -0.0114125 0.0212527 -0.0268149 0.0480724 -0.0223865 0.00967545 -0.0484921 0.0394958 -0.0524511 -0.0249205 -0.0699845 -0.0152805 0.0900868 -0.0101253 0.000179002 -0.000636248 -0.034607 0.00742557 0.0359406 -0.0170363 -0.0187564 0.062914 -0.0423245 0.012237 0.00144489 -0.0167244 -0.0147843 0.0613027 0.00883352 -0.00214546 0.0115917 -0.0147308 -0.00413632 0.00759044 0.0546917 0.0718177 0.0533506 -0.0180079 -0.0282002 -0.00910014 -0.0222947 0.0399224 -0.00360069 -0.0128343 0.0456343 0.00304487 0.00751982 0.0353641 0.0196377
a -0.00259255 -0.00999986 -0.04231 0.0323032 0.033034 0.0169351 0.039413 0.0353904 -0.0362036 0.0267525 -0.0199353 0.0493452 -0.0645757 0.0515745 0.00933979 -0.0395616 -0.0170107 0.0341478 0.00155607 0.0282585 -0.0142025 0.00164536 -0.0146025 0.00919005 -0.0144404 -0.0811674 0.0126004 0.016495 0.00805556 0.035742 -0.0540158 -0.0037498 0.0391477 0.0660859 -0.0398847 0.0429377 0.0334636 0.0506051 0.0132622 -0.0344251 -0.0348719 -0.0518532 0.0381165 -0.0139857 -0.0198141 0.0471804 -0.0495247 0.0602188 -0.0412689 0.0575739 0.0124122 0.00708996 0.000155407 -0.00496217 0.0233067 -0.0106096 0.0349859 -0.0513657 0.00335534 0.0150452 0.0389183 -0.0138576 -0.0177962 -0.0266151 -0.054536 0.0183957 -0.0183799 0.0216374 -0.0412766 0.00525702 0.0357368 -0.0474542 -0.0100394 -0.0381493 0.0171076 -0.0448268 -0.0357031 0.0487855 -0.0330134 0.0441344 -0.00459903 0.0880289 0.0211365 -0.0373073 -0.0253651 -0.0976776 0.0106811 -0.0280539 -0.031271 0.0378028 -0.0016898 -0.014018 -0.00494537 -0.0484507 0.0095399 -0.0152894 -0.0367518 0.0409301 0.033767 0.020923 0.0534675 0.0325367 -0.0846819 -0.0226114 -0.0177296 -0.0130526 -0.0413891 -0.0377627 0.0462654 0.0543099 -0.00875108 0.0676104 0.0424603 0.0218282 -0.0100147 -0.0254652 0.0334316 0.0356318 0.00306998 0.0271422 -0.00460131 -0.00323503 -0.0433754 0.0107578 0.0134785 0.0366347 -0.0332569 -0.0349933 -0.0363715 0.0412021 0.0771142 -0.0145564 -0.0201071 0.0338702 0.0150788 0.00775923 -0.0117361 -0.0120758 0.0554388 -0.0433409 0.00413586 0.0254244 0.0140467 -0.0158175 -0.0424934 0.0464254 0.0626954 -0.0223464 -0.0236341 0.00950049 -0.0307032 0.0458686 -0.00613888 -0.0374455 0.0263777 0.00257909 -0.0145487 0.11678 -0.0279668 0.0662533 -0.0327528 -0.0282303 0.0361726 0.0109741 0.0030285 -0.00833936 0.0505347 0.0299743 0.119439 0.00502975 0.0171885 -0.00279182 0.0461257 -0.0178595 0.0368247 0.0337052 0.0248133 -8.32703e-05 0.0148604 0.0249056 -0.0135596 -0.0151493 0.0124707 0.0209198 -0.0578734 -0.0130837 -0.0305508 0.0217739 0.00887231 -0.0172288 0.0116105 0.00556266 0.0173935 0.015641 -0.0108622 -0.0874877 -0.0188824 0.0411715 -0.0449544 0.0626877 -0.0650388 0.000297765 -0.0500406 -0.0318269 0.0176296 -0.0156754 -0.00998011 -0.00316716 0.0221918 0.00501348 -0.0185701 0.00993193 0.00280996 0.0304275 -0.0680804 0.0230069 0.0127029 -0.0275396 0.0325387 0.00139874 -0.0359353 -0.0571012 0.00907833 0.0174852 -0.0239048 0.0094265 0.080263 0.00937955 0.00370406 0.00873391 0.0424017 -0.0136066 0.00813942 0.00378711 0.0211838 -0.0608354 -0.0517932 -0.0558855 0.00337042 0.0421409 0.00341703 0.0159175 -0.0220011 -0.0329467 -0.0599499 -0.0222337 -0.00608001 0.0117667 0.0485188 -0.0146842 0.0504079 -0.0776268 -0.0172445 0.0182716 0.00990658 -0.00685295 -0.0361244 0.0215727 -0.0699669 -0.0301807 -0.0182363 0.0211196 -0.0100994 -0.0756126 -0.0168215 0.00398937 0.0425522 0.0622563 0.00546074 -0.042994 -0.0518598 0.0711608 -0.0211835 0.0186435 -0.0266373 -0.00569557 -0.04223 -0.0353106 -0.0416103 -0.112588 -0.0107398 -0.0318523 0.00968612 0.0307486 0.00183704 -0.10261 0.0161334 0.00163669 0.0304528 -0.00711601 -0.0414895 -0.0342187 0.0321483 0.0243283 -0.032021 -0.0113232 0.0542058 0.0112244 -0.0177093 0.0481751 0.0145985 0.00302278 -0.0293066 0.0225628 -3.10785e-05 -0.00327562 -0.0242557 0.0161914 -0.0367307 -0.0186974 -0.00364462 -0.00172675 0.0275358 0.0596581 0.0210677 -0.0342883 0.0501897 0.00898327 -0.0242627 0.014982 -0.0765743 -0.0127435 0.0641841 0.000925191 -0.0137878 -0.00478406 0.0194363 -0.0458114 -0.0129875 -0.0531452 -0.0305864 0.0133057 0.00624897 -0.00452216 -0.0146762 0.0267752 -0.0173588 -0.0168552 -0.0388497 -0.0360529 -0.0154538 0.0355399 -0.0615815 0.0166698 -0.0370841 -0.0177293 -0.0094888 -0.0010785 0.0119987 0.095867 0.0343452 -0.00377436 -0.0459076 0.039607 -0.0054524 -0.0465122 0.0372423 0.0207302 0.0215361 -0.0265601 -0.043163 0.0391216 -0.00678661 -0.0387099 0.047986 -0.00335413 -0.0145517 -0.00685387 -0.00133764 -0.0164485 -0.0367077 0.0352421 -0.0214137 -0.0698376 -0.022914 0.0255554 -0.05167 0.0176491 0.0488723 -0.0299276 0.0131312 -0.0307397 0.0133017 0.025932 -0.0294944 -0.00699973 0.0267102 -0.0471135 0.00434297 -0.0148294 -0.0255237 -0.0171071 0.0188056 0.0275595 -0.00278948 0.00421741 -0.0142404 -0.00184918 0.0560036 0.0278797 -0.0319204 -0.0337387 0.0238102 -0.004325 -0.0833 0.0098667 -0.0865408 -0.000202005 -0.0124999 -0.0743214 0.0357766 0.0109061 0.0134279 -0.0130718 -0.0813956 0.0235872 0.00257433 -0.00861746 0.0234881 -0.0104993 0.0156981 0.0455652 -0.0699313 0.0210544 0.0254987 -0.038813 -0.00265105 -0.0109218 0.0519501 0.00857606 0.0174137 0.0913014 -0.0499724 -0.0488822 -0.00775479 -0.01964 0.0148916 0.0158956 0.0739314 -0.0195416 0.0114371 -0.0847066 0.0314151 -0.0284078 0.0310367 0.010718 -0.0225714 -0.0214544 -0.0382623 -0.0526081 -0.0280102 0.0118672 0.030524 -0.00263021 -0.0121692 0.0358109 -0.0268329 0.112696 0.0209083 0.0599375 -0.0346949 -0.00887771 -0.0235224 0.0299315 0.00272217 -0.0510243 -0.0430018 0.0356213 -0.010671 -0.0230842 -0.0133882 -0.0302163 0.0248095 -0.0398027 -0.0519133 -0.006494 -0.0487668 0.0843279 0.0307246 -0.0363978 0.040601 -0.0045844 -0.0370744 0.056642 0.032742 0.0315633 -0.0276562 -0.00222276 0.00298112 0.0228803 -0.00220018 0.00677519 -0.000307621 0.00715286 0.0395712 0.00731722 -0.0560958 0.00539577 0.0290725 -0.0896137 -0.000962501 -0.0186534 -0.0523682 0.0139214 0.0151867 0.0269937 -0.00348835 -0.00590607 -0.0173629 0.0630406 -0.00780548 -0.00201494 -0.052217 -0.0195344 -0.0259831 -0.0703839 0.0339802 0.0232988 -0.00909918 -0.0217229 0.00790864 -0.00877403 6.49423e-05 -0.0278109 -0.0252025 0.0398435 -0.0446494 -0.0324898 -0.0159469 -0.0711422 -0.0152726 0.0302311 0.0352936 0.0389469 0.032009 -0.0406201 -0.0259705 -0.0310351 -0.0184216 0.0406607 0.0215934 0.0367909 0.102033 0.0116919 0.000233755 -0.0254338 0.0191187 0.0327935 -0.0397 0.0429066 0.022814 -0.0322183 -0.0286821 -0.0286913 -0.0735511 -0.0427987 0.0659969 -0.0797553 -0.00874144 -0.0429557 0.0495249 0.0403838 0.0261484 0.0308788 0.0239219 -0.0240759 0.0621516 -0.0264911 0.00362495 -0.0301128 -0.0328928 -0.0278959 -0.00786282 -0.00422123 -0.0162775 -0.0250973 -0.0166483 0.00372716 0.00970838 -0.0198229 -0.00717357 -0.0228431 -0.0450673 -0.03113 -0.0198034 0.0115496 -0.0467397 0.011746 0.00586817 -0.0482584 -0.0175896 -0.038742 -0.0134177 0.0319468 -0.00212868 0.0681652 -0.0474786 -0.0682104 -0.0272712 0.0277743 -0.0274065 -0.0111975 3.99068e-05 0.0427197 -0.0204488 0.0492215 0.00478741 -0.0156705 -0.0236049 0.0318071 -0.0196159 -0.0263643 0.0593715 -0.00184692 0.0064619 -0.0222117 0.0838167 0.0292708 -0.0179497 0.0560808 -0.0203841 0.0172765 0.0810879 0.140979 -0.00625388 -0.00956578 -0.00992621 -0.0107289 -0.00789632 -0.00647519 0.0318031 -0.0403628 0.0048932 -0.0241577 -0.0431816 -0.0015839 -0.0394982 0.0252637 -0.00823205 0.0163629 -0.0502062 -0.0187136 -0.0305076 0.0101774 0.0156505 -0.0168043 0.0591331 -0.051142 -0.0707584 0.0447429 -0.00144519 -0.00263824 -0.033935 0.0630469 0.031477 0.0340783 -0.0316944 0.0445509 -0.0333562 -0.00306379 0.015169 0.00340699 -0.0184544 0.0211443 0.0112302 -0.0579035 -0.000986119 0.0310767 0.0151738 -0.0983575 -0.0533368 -0.0345849 -0.0214396 0.040608 -0.0212226 -0.02268 0.0425234 0.0513168 0.0125757 0.0171738 -0.0885318 0.0450157 0.0153912 -0.00402313 0.0125028 -0.0105749 -0.0324033 0.00978505 0.0176905 -0.0681237 0.00785125 0.0764028 -0.0296222 0.0387875 0.0344756 -0.0532133 -0.0435631 0.0668362 -0.00380106 0.0159026 -0.0314899 0.0047881 -0.0193405 -0.0151801 0.0287494 -0.0121479 -0.00235563 0.0304314 0.0803387 -0.0482655 -0.0188052 0.00578631 0.0142498 0.0421152 -0.0136046 -0.0421347 0.04458 -0.0335795 0.00170603 -0.0425744 -0.0358782 0.011562 -0.00348988 -0.0711741 0.029666 -0.0223635 0.0524291 0.0263948 0.00384965 -0.0422455 -0.0222294 0.0455557 0.0216203 -0.0216263 -0.0400171 -0.0867756 0.0111146 0.0312383 -0.0503667 -0.0263542 0.0348104 -0.0113563 0.012358 -0.00289321 0.0366315 -0.0221297 0.00938587 0.0503967 -0.00106153 0.0623461 0.0244291 0.0340185 0.0048277 0.0400398 0.0124091 0.00728367 -0.0303136 0.0393408 -0.00342303 0.0309832 0.0241557 0.0124097 -0.00597004 -0.068791 -0.0176701 0.038864 0.0158762 -0.0201094
is 0.0509709 0.00692681 -0.0137776 0.00893892 0.0288611 0.0513672 -0.00315393 0.11887 -0.0364487 0.010334 -0.0602441 0.0279958 0.0203945 0.0192044 -0.0115078 0.0170619 -0.0413274 0.0389185 -0.0755822 0.0190727 -0.0112472 0.00934376 -0.050376 0.00459473 -0.035968 -0.0601741 0.0333208 -0.03057 -0.0376615 0.0474324 -0.0406166 -0.00176223 0.019252 0.0194049 -0.0347057 0.0289388 0.00223999 0.0590308 -0.0200658 -0.0184195 -0.0307569 0.0229823 -0.0116254 -0.0125254 -0.050827 -0.0248259 0.0265327 0.0200327 0.0573461 0.028798 -0.00728928 -0.022281 0.0500949 -0.0136553 0.0596456 0.0793451 -0.0507513 -0.0719153 0.0277068 0.0375963 0.00562282 0.0199258 -0.0385776 -0.0491529 -0.0136863 0.029903 -0.0353437 0.0238041 -0.0181153 -0.00885802 0.0155536 -0.0473088 0.0314441 -0.0029192 0.0689012 -0.0133161 -0.0831044 0.0428546 -0.0669093 0.0600197 0.0211718 0.00905015 0.0510997 -0.0818775 0.049852 -0.0398355 -0.0284884 0.0261403 -0.0284505 0.080625 0.0266529 0.0449676 -0.0330852 0.0294782 0.030814 -0.0224899 -0.0519137 0.0815263 0.0178321 0.012019 0.0265597 0.069344 -0.0439341 -0.0149142 -0.0249619 -0.0143597 -0.0503082 -0.0271018 0.0102328 -0.0106129 0.00639434 0.0375436 0.0266423 7.56026e-05 -0.0464031 -0.0181439 0.00927421 0.0458445 0.0624299 0.0114398 -0.0292004 -0.027479 0.0198137 -0.0107773 -0.0217687 0.0524623 0.00427061 -0.0335754 -0.0139474 0.0347813 0.0579984 0.0137432 0.00132116 0.00352147 0.0148587 0.0920559 -0.0276008 -0.0647901 -0.00450688 -0.0453954 -0.0627375 0.0220237 0.00337722 0.0387954 -0.0214116 0.00452222 0.0766522 -0.0500554 0.0389776 0.113686 -0.0631651 0.0547905 0.00158352 -0.0521212 0.0312161 -0.0122355 -0.03413 0.0329438 0.00434951 0.010363 -0.0894794 -0.0358484 0.0300577 0.00989089 -0.0224586 -0.0759106 -0.033672 0.0120585 0.0579796 -0.0353144 0.0401725 0.000803389 -0.032513 0.0283074 0.018966 0.0508677 -0.00987552 0.0166027 0.0469115 -0.00486849 0.0391153 0.0420547 0.0457487 0.0261456 0.0421499 -0.00230997 -0.0193219 0.0311826 0.0165552 0.0033591 -0.00534684 0.0031674 0.0267411 0.018249 -0.0382059 -0.0344152 -0.0271269 0.00765101 -0.00323908 0.0420745 -0.0392855 -0.0517515 -0.0732427 -0.0270793 -0.00440866 0.018641 -0.00213299 -0.0809295 0.0220788 -0.0318281 -0.00950294 -0.00840219 0.032133 0.0313264 0.000264983 -0.00674856 -0.0488123 -0.0594566 0.00333223 0.00246244 -0.0390352 -0.0814528 0.00847636 0.0389984 -0.0189369 -0.00081469 0.0491035 -0.000363841 0.00229888 -0.0176334 -0.0210342 0.00595199 -0.0178772 0.0132103 0.0345429 -0.036662 -0.0640171 0.027157 0.0439215 0.00103579 0.00890363 -0.00285364 0.00220956 0.0329912 0.000989626 -0.0157442 0.0113376 -0.0300577 0.0510366 0.0202057 0.0473973 -0.0270001 0.0182247 -0.0114364 0.0352073 0.0309578 -0.0185429 -0.00936858 -0.0483165 0.00627091 0.0267677 0.00750182 0.030835 -0.012885 0.0077062 0.0115958 -0.014062 0.088529 -0.00984615 -0.00205055 -0.0451283 -0.04183 -0.0174827 -0.0960374 -0.0529945 -0.00572612 -0.0521654 -0.0756769 -0.043415 -0.0733168 -0.0676368 -0.0288157 0.00659201 0.011179 0.00814886 -0.0123964 0.00633295 0.0469972 0.00724628 -0.0104991 -0.042954 0.0163946 0.000318075 0.0405488 0.029372 -0.0313618 -0.00269644 0.0397486 -0.0264767 -0.00776718 0.0413871 -0.0263639 -0.0240043 -0.041254 0.00984668 0.0118808 0.00354034 -0.0322193 0.0132894 -0.00837975 0.0210957 0.0335128 0.030604 0.0614679 0.0360331 -0.00478132 0.03888 -0.020349 0.0131066 0.0210542 -0.00204589 -0.00810336 0.0263298 0.0084759 0.0173446 0.0177982 -0.0115485 -0.0812802 0.0107786 -0.072694 -0.0368383 -0.0046474 0.0514983 0.0027453 0.0161595 0.0121827 0.013954 0.0633891 -0.039092 -0.0208857 -0.0431085 -0.0360932 -0.0700688 0.00164371 -0.0699956 0.026167 0.0119469 -0.00130852 0.0136989 0.0344148 0.0456884 -0.0239172 0.0110944 0.0475541 -0.016639 0.0151522 0.0625487 -0.0174867 0.0103266 -0.00593854 -0.0585904 -0.022382 0.00141544 -0.0165268 0.0802274 -0.0331155 -0.0141133 -0.0416861 -0.0377539 -0.0381971 0.000305255 0.023848 -0.0331698 -0.078854 -0.0331102 0.0543715 -0.0139659 0.0675915 -0.0171109 0.00448876 -0.0247799 -0.0409114 -0.0247386 0.0237383 -0.0885018 -0.000346649 0.0435189 0.0118788 0.0342857 -0.00027451 -0.00475469 0.0119007 -0.0332042 0.0626021 -0.0177672 -0.0115505 0.0551926 0.0104352 0.0233584 0.00650884 0.00333946 -0.00980238 0.0167247 -0.0275632 -0.0166376 -0.00141093 -0.0719289 -0.0246835 0.0306825 -0.0711775 -0.00140408 -0.00535645 0.00462488 0.0104841 -0.0574815 0.0133782 -0.066441 0.00757923 -0.00233394 0.0162866 0.0274098 -0.0611616 -0.0525752 -0.00113066 0.0121104 0.00304345 -0.0196993 -0.0206967 0.0369339 0.0124504 -0.0017715 0.0524519 0.0154037 0.0191721 -0.0270261 -0.0250419 0.00886904 0.0204831 0.0660808 0.0211579 0.00197006 -0.00839315 0.052928 0.0314295 0.0129669 -0.000846043 -0.00379632 0.0670289 -0.0772865 -0.00988234 0.0433508 -0.0404336 -0.00527483 -0.00011685 -0.0298913 0.0906216 -0.00558391 0.0157724 0.0027543 0.0396698 0.0315511 -0.0156568 0.0183911 -0.0127127 -0.0037188 -0.0369897 -0.0780063 -0.00553335 -0.0535891 0.0191405 0.0895365 -0.012501 -0.0538406 -0.0610448 -0.000402479 -0.0309602 -0.00956978 0.0513768 0.043923 -0.028472 0.0552432 0.0458192 -0.0539054 0.0293867 0.0297505 -0.0271187 0.00421196 0.00287651 -0.0217065 -0.0248254 -0.0116102 0.018982 -0.0331506 0.0280233 0.0102135 -0.0158782 -0.0532409 -0.000626897 0.0204565 -0.0516046 0.000854004 0.00440637 -0.0725438 -0.0457268 -0.0407601 0.00867789 -0.0210978 0.0238514 -0.00812788 0.0408606 -0.0202465 -0.0617491 -0.0188564 -0.00745944 -0.063469 -0.00542473 0.03578 0.0239213 -0.029036 -0.0165771 -0.0164543 -0.022149 -0.0377542 -0.0551771 0.00661416 0.0133313 -0.00287173 -0.030446 -0.025671 -0.0223056 -0.0200069 0.0167675 0.0430947 0.00293155 0.0347743 -0.0470716 -0.0276764 -0.0708612 -0.000246173 0.0523356 -0.0337763 0.0666603 0.0337761 -0.0496537 0.0218159 0.0283366 0.0385467 0.0101778 -0.0813481 0.0743959 0.0101756 -0.00466748 -0.0211072 -0.0239406 -0.101434 -0.00579452 0.00764732 0.0280424 0.0705207 -0.054139 0.0249711 0.00196394 0.0147812 -0.00333202 0.00819173 0.0410666 0.0537375 -0.00484401 -0.0201861 -0.0316562 -0.0523886 -0.0155208 0.0417086 0.0384506 0.0180049 -0.066531 -0.0541899 0.01235 0.0515434 0.0100833 -0.018109 0.00498067 -0.0320116 -0.0312381 0.00556837 0.00730249 -0.0678607 0.0107724 0.0265814 -0.0537226 -0.00778361 -0.0127863 -0.00441835 -0.0260982 -0.0233183 0.0261291 -0.0272527 -0.00538074 -0.0328692 -0.01129 -0.0477392 0.025685 -0.000208974 0.0598482 0.00608513 -0.0192216 0.0108913 -0.0103799 0.0461089 -0.015599 -0.016764 -0.0334236 0.0535709 -0.000461074 -0.0312561 -0.0365193 0.0529574 0.0330512 0.0303776 -0.00453939 -0.0328205 0.0117256 0.0127947 0.033808 0.0117468 -0.00318014 -0.0250442 -0.0238944 -0.0436944 -0.0110703 0.0397578 -0.0246918 0.020571 -0.0337392 0.000123432 -0.0779571 0.00520746 0.0148859 0.0548553 -0.00303691 0.0125596 0.0125005 -0.0236077 0.00208562 0.0515178 -0.0209469 -0.0063453 0.0138873 -0.0275708 0.0719232 0.0150521 -0.0381534 -0.01489 0.000554983 -0.0133751 -0.0457891 -0.0401479 0.0659596 -0.000536045 0.0267699 0.00358055 -0.0151344 0.0167129 -0.0452043 -0.00767143 -0.0469234 -0.0179923 0.061089 0.0324381 -0.0609274 -0.0282976 -0.0020069 0.00534203 0.0286718 -0.0585253 0.0397429 -0.0191669 -0.00546349 0.0220016 0.0388694 -0.0382894 0.00260023 0.0202441 -0.0394098 0.0193336 -0.0171164 -0.0447617 -0.0483242 -0.0076689 0.00607075 0.0230541 0.0669867 -0.042908 -0.00106394 0.0248862 -0.0354478 -0.0141829 0.0678828 0.0271863 0.0511304 0.0155379 -0.0053953 -0.0237585 -0.00216646 0.0369174 -0.0156167 0.0174949 0.032953 0.0447052 -0.0364662 0.00894318 0.0303517 -0.0043062 0.00462227 -0.000913629 0.000764057 0.0900638 -0.00202665 0.00575424 -0.0304762 0.00120316 0.032181 0.0423891 -0.00593542 0.0704225 -0.0445098 0.0297173 -0.000704667 -0.0177393 -0.100515 0.00226656 0.0117204 -0.00090081 0.0208792 -0.0167398 -0.0270696 0.0375077 0.000595745 -0.07578 0.00523924 0.080712 -0.0218862 -0.0196929 0.00100176 0.0407362 -0.0139317 -0.00633277 0.0376518 0.00588049 -0.026249 0.0492949 -0.00809839 0.0751483 0.0139821 0.0739658 0.00140174 0.0224614 0.0292118 0.0518398 -0.00824633 0.0340085 0.0462685 0.00372598 -0.0661734 0.0297468 0.0309412 -0.0306474 0.0455659
The 0.0258401 -0.00717127 -0.0832361 0.0154948 0.03379 0.0749154 0.0258926 0.0871528 0.0205269 0.0326678 -0.0424303 0.0913272 -0.0661383 0.0264077 -0.0492793 0.0428409 0.00616074 0.00799613 -0.100972 -0.0198232 -0.0741966 0.0102086 -0.0204107 -0.0230626 0.0199264 -0.0138642 0.00366313 0.00247578 -0.0489483 -0.00484957 -0.00288034 0.0216849 0.0264152 0.0513822 -0.103011 0.0283691 -0.0323362 0.0737175 -0.0157299 0.0251596 -0.0190202 -0.060454 0.0241779 0.0234499 -0.0485388 -0.0740476 -0.014309 0.00494938 0.0678892 0.0309012 0.0856708 -0.042625 0.0507812 0.0280397 0.0402923 0.0148745 -0.0330891 0.0477557 0.00883784 0.00323705 -0.00570078 -0.0183914 0.00468775 -0.0264823 -0.032389 0.0138638 0.0135697 0.0725928 0.0323333 0.00848222 -0.00120613 0.027569 -0.00656899 0.0115699 0.016026 -0.0302634 -0.0488551 0.0137221 0.000700908 0.0705775 -0.032699 0.0372571 0.0253688 0.0239271 0.0581308 -0.0206022 -0.0321014 -0.00617135 -0.0370878 0.044635 -0.0236702 0.0309553 -0.0106905 0.0535479 0.0459366 0.00198562 -0.0156498 0.0277512 0.0122959 0.0162318 -0.0073408 0.0440734 -0.0608927 0.0159054 -0.122926 -0.040721 -0.0566821 0.039408 -0.0303367 -0.000859426 0.00346067 0.00163292 0.00241299 0.0172881 -0.0238858 -0.0168443 0.0597736 0.0439822 0.00136938 0.00545723 0.0649524 0.0492257 -0.0375349 0.00370225 -0.0251083 0.0519901 -0.00303903 -0.0140418 -0.0449765 -0.0136534 0.0785089 -0.0541095 -0.0321015 0.0060802 -0.0160183 0.0084082 0.0200264 0.00478045 -0.0199685 -0.0215304 -0.0633773 -0.0180144 0.0385584 0.0391888 -0.0192301 0.000299554 -0.032957 -0.00674458 0.0308853 0.0163007 -0.0375036 0.0776158 0.00660588 0.0141077 0.0519506 0.00859305 -0.00376014 0.0447319 -0.00396645 0.0308637 -0.0569264 -0.0474497 0.00698293 -0.00156296 -0.014602 0.0377947 0.0633997 0.0227709 0.0429595 0.00543858 -0.0543966 -0.0112818 -0.108899 0.0215252 0.0293916 0.00762937 0.00620082 -0.0245052 -0.00110821 0.0204508 0.0164251 -0.0282261 0.0264591 0.0179916 -0.0466174 0.00565986 -0.00394231 0.091627 0.0237721 0.0163726 0.0291264 -0.0388736 0.0137838 0.0462457 0.0330854 0.0017335 -0.0148148 0.00842854 -0.0566398 -0.0421241 0.0162717 -0.0446522 -0.00969137 0.044312 0.0457337 -0.0442042 -0.000368234 -0.0589611 -0.023041 0.0444558 -0.0214577 -0.0391347 -0.0261032 0.027415 -0.0261483 -0.00845899 -0.0222709 -0.000421025 0.0142257 -0.0251179 -0.0390414 -0.0522758 -0.0345486 -0.0041423 -0.0343412 -0.0467867 0.0572659 0.0472661 0.0358882 -0.0715898 0.0256543 0.00494045 0.00235451 0.0328116 -0.011516 0.0235526 -0.00334138 0.00165583 -0.016274 0.00968679 -0.0308009 0.0158963 -0.0666408 0.0490486 -0.0407722 0.0492208 0.00810358 -0.000182233 0.0812559 0.00662176 0.0567206 -0.0396007 0.00080002 0.012208 0.0178159 0.0122186 0.0137497 -0.0240689 -0.021418 -0.035582 0.0102467 0.0205361 -0.0417545 0.0135576 0.0467246 -0.0312852 0.0844527 0.0166327 -0.0181701 -0.0499881 -0.0464256 0.0155961 0.00984218 -0.0154708 -0.0758631 -0.00111532 0.0353465 -0.0842905 -0.0275467 -0.0670904 0.000444767 -0.0036148 0.0439004 0.00558886 0.0601639 -0.0678271 0.00445809 0.0514426 0.0897727 0.0458984 0.0159163 0.0084657 -0.0390148 -0.00989897 -0.0139861 -0.0546394 -0.0324153 0.00935605 0.0281549 0.00136233 0.000770635 0.0313739 0.00460097 -0.0102635 0.0145406 0.00503967 -0.0179826 -0.034051 0.0321574 0.0202545 0.0445387 0.00634882 0.0327505 -0.0548255 0.0847372 -0.0740433 0.0143404 0.0451278 -0.0103742 0.0330823 -0.067634 -0.00554645 0.0340455 -0.0244569 0.00110274 -0.0803948 0.0297815 -0.0244673 0.0519662 0.00268676 -0.00208154 -0.0160115 0.0077069 -0.0144153 -0.0215122 0.00146954 -0.0098141 -0.00298234 -0.00670219 0.014474 -0.0333893 0.00458236 -0.0109096 -0.0038052 -0.0137786 -0.0168828 0.0149966 -0.0470053 0.0185039 0.105551 0.0099041 -0.06547 -0.0165598 0.0387724 -0.0311196 0.0310155 0.0154064 -0.0169729 -0.015291 -0.0516444 0.0212766 -0.0456638 0.0466127 -0.0155022 0.0451402 0.00867263 0.0155959 -0.00610321 -0.019146 -0.0344984 -0.0167819 0.0263422 -0.0487402 -0.0677224 -0.0260905 0.0229152 -0.0262286 0.00606389 0.00542088 -0.0922004 -0.00197568 -0.0444723 0.0256476 0.0468089 0.00130303 -0.00928738 0.00493117 -0.0350084 0.034793 -0.0305319 -0.0611656 0.00871885 -0.0453774 0.0222525 0.0220751 -0.00109441 0.00655842 0.0139921 -0.000517802 -0.0167527 -0.003098 -0.0138633 -0.00192774 0.0503384 -0.0274332 -0.0575903 0.0292688 0.0344486 -0.00241451 -0.0409404 0.0208674 0.03028 0.0175492 0.00833268 -0.013032 0.0202475 -0.00591617 0.00456892 0.00591694 0.04688 0.0118577 0.00604168 -0.0434944 0.0162362 0.0204395 0.0499916 -0.0424243 -0.0422736 0.0252178 -0.00885938 0.0359166 0.0706342 0.0347468 -0.0253679 -0.037984 -0.0283538 -0.00888256 0.0460254 0.0573338 -0.0532261 0.0260706 -0.0254484 0.0309862 -0.0145943 -0.0303614 -0.0113456 -0.082028 0.0433338 0.0243521 0.00684125 -0.0142598 0.0367852 0.0148018 0.0248303 -0.0282449 0.0974661 -0.00901489 0.0007876 0.042006 0.00467703 0.00976138 -0.056757 0.0289766 0.040502 0.0274603 -0.0262216 -0.0401117 -0.0284939 0.00586776 0.0198874 -0.0177118 -0.0587418 0.0361242 -0.0308689 -0.0413376 0.0522772 0.0419571 0.0633397 0.0100586 -0.0605037 0.0415019 0.0683666 -0.0346251 -0.0156421 -0.0160053 0.0424344 -0.0545554 0.0292737 0.0244782 -0.00820055 -0.0159076 0.039085 -0.0212037 -0.00582885 0.0473755 0.00120156 0.0138939 0.00542848 0.0090143 0.0170544 -0.0216258 0.00269995 -0.027349 0.0129822 0.0101065 0.0204683 0.00588839 0.0715993 -0.0122705 -0.0432513 0.024662 -0.00711399 -0.106401 -0.041005 -0.028364 -0.0394307 0.0354535 -0.0145339 -0.0150363 -0.0110021 -0.0149064 -0.0195445 0.0111203 0.0373809 0.0605651 0.0487545 -0.051502 0.014355 -0.0123433 -0.064793 -0.00705804 0.00278389 -0.00447715 0.0281137 0.00361666 0.000370368 0.0119247 -0.00940264 0.0524964 0.00663453 -0.025247 0.0173585 0.0406426 -0.013927 0.0120319 0.0313379 -0.0562027 0.0273388 0.061576 0.158503 0.00475177 -0.0303725 0.00865628 -0.028032 -0.0807748 -0.00740747 0.0499792 -0.0226798 -0.00967726 -0.038765 0.012219 0.022604 0.0608604 -0.0205092 0.0259683 0.0337508 0.0154413 0.0341073 -0.0155438 0.00757519 -0.0692676 0.0604322 -0.0124012 -0.0094074 0.0301724 -0.0026057 0.000381428 0.0022542 -0.0274915 0.018447 0.0241416 -0.023974 0.00301775 0.0219793 0.0132227 -0.033409 0.0114572 0.0503651 0.019792 -0.00569858 0.00603232 0.0246384 -0.0131164 -0.0451391 -0.0364712 0.048803 0.000515709 0.030826 -0.00388047 -0.0388353 -0.0313588 -0.00355339 0.0165138 -0.0318332 0.00620884 -0.0174805 -0.051686 -0.0117141 0.0301677 -0.0411491 0.0312194 -0.037175 0.035145 0.0447953 0.0478242 0.00986191 0.0446011 0.0349045 0.0135045 0.0153439 0.00302404 -0.0122226 0.0166394 0.0158102 0.0287446 -0.0199713 -0.0608622 0.00396719 0.0163902 0.0280784 0.00450198 0.0162615 0.0198454 0.0158273 0.0333521 0.0386366 0.00260567 0.0314836 0.0115732 -0.000309223 -0.0372253 0.0132862 0.00151856 0.0243275 0.0117348 -0.0263674 0.0302516 0.0184334 -0.0373292 -0.00410279 0.0198282 -0.0136911 -0.0259786 0.0243491 0.0211512 0.00179402 -0.0201431 0.0292601 -0.0205411 -0.0564904 0.0407478 0.0267327 -0.0227453 0.00300958 -0.0163849 0.000956697 0.0109307 0.0342966 0.00347388 -0.0170924 0.0222071 -0.0318995 0.00500868 0.0581352 0.0225848 -0.0679903 0.0118671 0.0118007 -0.00465142 0.0188285 -0.0666303 -0.0269789 -0.00593379 -0.0475395 0.057798 0.0320289 -0.0346368 0.0188619 -0.00286417 0.0318312 -0.0580027 0.0480519 -0.0118773 0.0322239 0.0701476 0.023927 -0.00579728 0.0397417 0.0362727 0.0213294 -0.0602652 -0.0022302 0.030695 0.0316739 -0.0154603 -0.0177934 -0.0178284 0.0260821 0.0196257 -0.0248338 -0.00582112 0.0773107 0.0255754 -0.0303303 -0.0694285 0.0837919 0.00687829 -0.00763103 0.0245063 -0.0334546 0.00591861 -0.00972544 0.0695757 0.0142952 0.0444455 -0.0773078 0.0544809 -0.0291632 -0.00986471 -0.0148141 -0.0504641 0.0731153 -0.0244276 -0.0299509 -0.0198966 -0.00640685 0.00660519 0.00309674 0.0337179 -0.0481022 0.0730133 -0.009639 -0.0477785 -0.0111881 0.0587765 0.0639987 0.022532 -0.0250609 -0.0148766 0.00778243 0.0452433 -0.0366636 0.0765783 0.0380606 -0.0212565 0.0723056 0.0209168 -0.0224269 0.0108202 0.0302928 0.0325628 0.0385079 -0.00108846 -0.0720482 0.0169329 -0.00418791 0.0352765 -0.0289218
